{"learner":{"attributes":{},"feature_names":[],"feature_types":[],"gradient_booster":{"model":{"gbtree_model_param":{"num_parallel_tree":"1","num_trees":"100"},"iteration_indptr":[0,1,2,3,4,5,6,7,8,9,10,11,12,13,14,15,16,17,18,19,20,21,22,23,24,25,26,27,28,29,30,31,32,33,34,35,36,37,38,39,40,41,42,43,44,45,46,47,48,49,50,51,52,53,54,55,56,57,58,59,60,61,62,63,64,65,66,67,68,69,70,71,72,73,74,75,76,77,78,79,80,81,82,83,84,85,86,87,88,89,90,91,92,93,94,95,96,97,98,99,100],"tree_info":[0,0,0,0,0,0,0,0,0,0,0,0,0,0,0,0,0,0,0,0,0,0,0,0,0,0,0,0,0,0,0,0,0,0,0,0,0,0,0,0,0,0,0,0,0,0,0,0,0,0,0,0,0,0,0,0,0,0,0,0,0,0,0,0,0,0,0,0,0,0,0,0,0,0,0,0,0,0,0,0,0,0,0,0,0,0,0,0,0,0,0,0,0,0,0,0,0,0,0,0],"trees":[{"base_weights":[-0E0,1.9465644E0,-1.7827544E0,-2.5490198E-1,1.9995242E-1,-1.9122623E0,1.7993921E0,1.9555555E-1,-1.9655173E-1,-1.1780822E0,-1.9556257E0,1.9871382E-1,-1.3E0,-1.9901721E-1,1.9622642E-1,-1.9583967E0,1.2941177E-1,1.1111112E-1,-1.7714286E-1,-1.9597849E0,1.20000005E-1,-1.9618468E-1,-8.695653E-3],"categories":[],"categories_nodes":[],"categories_segments":[],"categories_sizes":[],"default_left":[0,0,0,0,0,0,0,0,0,0,0,0,0,0,0,0,0,0,0,0,0,0,0],"id":0,"left_children":[1,3,5,7,-1,9,11,-1,-1,13,15,-1,17,-1,-1,19,-1,-1,-1,21,-1,-1,-1],"loss_changes":[3.12461E4,5.023379E2,2.1837305E3,3.895304E2,0E0,1.4211523E2,9.8305664E1,0E0,0E0,6.554923E2,4.1089844E1,0E0,1.3334921E1,0E0,0E0,2.1111328E1,0E0,0E0,0E0,1.6345703E1,0E0,0E0,0E0],"parents":[2147483647,0,0,1,1,2,2,3,3,5,5,6,6,9,9,10,10,12,12,15,15,19,19],"right_children":[2,4,6,8,-1,10,12,-1,-1,14,16,-1,18,-1,-1,20,-1,-1,-1,22,-1,-1,-1],"split_conditions":[1.1889649E-1,6.7764474E-3,1.3455023E0,1.1573689E-1,1.9995242E-1,2.3862989E-1,2.215017E0,1.9555555E-1,-1.9655173E-1,8.0189124E-2,3.7560887E0,1.9871382E-1,8.671395E-3,-1.9901721E-1,1.9622642E-1,4.5491676E0,1.2941177E-1,1.1111112E-1,-1.7714286E-1,5.068321E0,1.20000005E-1,-1.9618468E-1,-8.695653E-3],"split_indices":[57,58,58,57,0,57,57,0,0,58,56,0,12,0,0,52,0,0,0,40,0,0,0],"split_type":[0,0,0,0,0,0,0,0,0,0,0,0,0,0,0,0,0,0,0,0,0,0,0],"sum_hessian":[9.002E3,4.30325E3,4.69875E3,1.01E2,4.20225E3,4.53525E3,1.635E2,4.4E1,5.7E1,2.545E2,4.28075E3,1.545E2,9E0,2.025E2,5.2E1,4.2775E3,3.25E0,1.25E0,7.75E0,4.276E3,1.5E0,4.27125E3,4.75E0],"tree_param":{"num_deleted":"0","num_feature":"59","num_nodes":"23","size_leaf_vector":"1"}},{"base_weights":[5.3158787E-5,1.7701563E0,-1.620502E0,-2.316979E-1,1.8183327E-1,-1.7382482E0,1.6365646E0,1.7815007E-1,-1.7898536E-1,-1.0711118E0,-1.7776395E0,1.8079665E-1,-1.1845673E0,-1.8105064E-1,1.7871265E-1,-1.780196E0,1.1991222E-1,1.05124496E-1,-1.6261801E-1,-1.7814897E0,1.1305224E-1,-1.7833811E-1,-7.977449E-3],"categories":[],"categories_nodes":[],"categories_segments":[],"categories_sizes":[],"default_left":[0,0,0,0,0,0,0,0,0,0,0,0,0,0,0,0,0,0,0,0,0,0,0],"id":1,"left_children":[1,3,5,7,-1,9,11,-1,-1,13,15,-1,17,-1,-1,19,-1,-1,-1,21,-1,-1,-1],"loss_changes":[2.5577102E4,4.1141602E2,1.7880029E3,3.2012305E2,0E0,1.16166016E2,8.092136E1,0E0,0E0,5.3793964E2,3.4408203E1,0E0,1.1519626E1,0E0,0E0,1.7972656E1,0E0,0E0,0E0,1.3491211E1,0E0,0E0,0E0],"parents":[2147483647,0,0,1,1,2,2,3,3,5,5,6,6,9,9,10,10,12,12,15,15,19,19],"right_children":[2,4,6,8,-1,10,12,-1,-1,14,16,-1,18,-1,-1,20,-1,-1,-1,22,-1,-1,-1],"split_conditions":[1.1889649E-1,6.7764474E-3,1.3455023E0,1.1573689E-1,1.8183327E-1,2.3862989E-1,2.215017E0,1.7815007E-1,-1.7898536E-1,8.0189124E-2,3.7560887E0,1.8079665E-1,8.671395E-3,-1.8105064E-1,1.7871265E-1,4.5491676E0,1.1991222E-1,1.05124496E-1,-1.6261801E-1,5.068321E0,1.1305224E-1,-1.7833811E-1,-7.977449E-3],"split_indices":[57,58,58,57,0,57,57,0,0,58,56,0,12,0,0,52,0,0,0,40,0,0,0],"split_type":[0,0,0,0,0,0,0,0,0,0,0,0,0,0,0,0,0,0,0,0,0,0,0],"sum_hessian":[8.914387E3,4.260561E3,4.6538257E3,1.0003502E2,4.160526E3,4.4919053E3,1.6192046E2,4.358201E1,5.645301E1,2.5201065E2,4.239895E3,1.5298479E2,8.935669E0,2.0050801E2,5.1502632E1,4.236658E3,3.2364306E0,1.2461499E0,7.689519E0,4.2351636E3,1.4946129E0,4.230414E3,4.7499104E0],"tree_param":{"num_deleted":"0","num_feature":"59","num_nodes":"23","size_leaf_vector":"1"}},{"base_weights":[1.2600578E-4,1.6376201E0,-1.4975864E0,-2.1410318E-1,1.6822262E-1,-1.6064149E0,1.5135201E0,1.6493699E-1,-1.6568165E-1,-9.904573E-1,-1.6427537E0,1.6729733E-1,-1.0916505E0,-1.6752398E-1,1.6543847E-1,-1.6449958E0,1.2994272E-1,9.978764E-2,-1.5112576E-1,-1.646227E0,1.0694325E-1,-1.428068E-1,-1.6625462E-1],"categories":[],"categories_nodes":[],"categories_segments":[],"categories_sizes":[],"default_left":[0,0,0,0,0,0,0,0,0,0,0,0,0,0,0,0,0,0,0,0,0,0,0],"id":2,"left_children":[1,3,5,7,-1,9,11,-1,-1,13,15,-1,17,-1,-1,19,-1,-1,-1,21,-1,-1,-1],"loss_changes":[2.1312283E4,3.4325E2,1.489752E3,2.6764117E2,0E0,9.6430664E1,6.7806335E1,0E0,0E0,4.4935217E2,2.9418945E1,0E0,1.0070751E1,0E0,0E0,1.55703125E1,0E0,0E0,0E0,1.2333008E1,0E0,0E0,0E0],"parents":[2147483647,0,0,1,1,2,2,3,3,5,5,6,6,9,9,10,10,12,12,15,15,19,19],"right_children":[2,4,6,8,-1,10,12,-1,-1,14,16,-1,18,-1,-1,20,-1,-1,-1,22,-1,-1,-1],"split_conditions":[1.1889649E-1,6.7764474E-3,1.3455023E0,1.1573689E-1,1.6822262E-1,2.3862989E-1,2.215017E0,1.6493699E-1,-1.6568165E-1,8.0189124E-2,3.9438932E0,1.6729733E-1,8.671395E-3,-1.6752398E-1,1.6543847E-1,4.5491676E0,1.2994272E-1,9.978764E-2,-1.5112576E-1,3.560155E-1,1.0694325E-1,-1.428068E-1,-1.6625462E-1],"split_indices":[57,58,58,57,0,57,57,0,0,58,56,0,12,0,0,52,0,0,0,57,0,0,0],"split_type":[0,0,0,0,0,0,0,0,0,0,0,0,0,0,0,0,0,0,0,0,0,0,0],"sum_hessian":[8.688041E3,4.1503E3,4.537741E3,9.753551E1,4.0527644E3,4.379907E3,1.5783385E2,4.2498848E1,5.503666E1,2.4557413E2,4.1343335E3,1.4906776E2,8.766075E0,1.9535968E2,5.0214447E1,4.1316255E3,2.7077022E0,1.2355013E0,7.530574E0,4.130146E3,1.4798155E0,2.9360968E2,3.8365361E3],"tree_param":{"num_deleted":"0","num_feature":"59","num_nodes":"23","size_leaf_vector":"1"}},{"base_weights":[1.9836465E-4,1.5346897E0,-1.4012307E0,-2.0031461E-1,1.5765408E-1,-1.503058E0,1.4174274E0,1.5457974E-1,-1.5527532E-1,-9.27597E-1,-1.5369618E0,1.5678689E-1,-1.0148569E0,-1.5699922E-1,1.5504812E-1,-1.5392903E0,1.0662869E-1,9.4994985E-2,-1.4178859E-1,-1.5404805E0,1.0152151E-1,-1.5463851E-1,-9.251882E-2],"categories":[],"categories_nodes":[],"categories_segments":[],"categories_sizes":[],"default_left":[0,0,0,0,0,0,0,0,0,0,0,0,0,0,0,0,0,0,0,0,0,0,0],"id":3,"left_children":[1,3,5,7,-1,9,11,-1,-1,13,15,-1,17,-1,-1,19,-1,-1,-1,21,-1,-1,-1],"loss_changes":[1.799709E4,2.9038574E2,1.2575615E3,2.2669229E2,0E0,8.094824E1,5.7585052E1,0E0,0E0,3.803982E2,2.5800781E1,0E0,8.885995E0,0E0,0E0,1.3673828E1,0E0,0E0,0E0,1.303125E1,0E0,0E0,0E0],"parents":[2147483647,0,0,1,1,2,2,3,3,5,5,6,6,9,9,10,10,12,12,15,15,19,19],"right_children":[2,4,6,8,-1,10,12,-1,-1,14,16,-1,18,-1,-1,20,-1,-1,-1,22,-1,-1,-1],"split_conditions":[1.1889649E-1,6.7764474E-3,1.3455023E0,1.1573689E-1,1.5765408E-1,2.3862989E-1,2.215017E0,1.5457974E-1,-1.5527532E-1,8.0189124E-2,3.7560887E0,1.5678689E-1,8.671395E-3,-1.5699922E-1,1.5504812E-1,4.5491676E0,1.0662869E-1,9.4994985E-2,-1.4178859E-1,1.196002E0,1.0152151E-1,-1.5463851E-1,-9.251882E-2],"split_indices":[57,58,58,57,0,57,57,0,0,58,56,0,12,0,0,52,0,0,0,58,0,0,0],"split_type":[0,0,0,0,0,0,0,0,0,0,0,0,0,0,0,0,0,0,0,0,0,0,0],"sum_hessian":[8.366867E3,3.9937861E3,4.373081E3,9.397828E1,3.8998079E3,4.2210576E3,1.5202377E2,4.0956722E1,5.3021557E1,2.3642867E2,3.984629E3,1.4350322E2,8.520554E0,1.8804738E2,4.8381287E1,3.9814763E3,3.1525695E0,1.2193027E0,7.3012514E0,3.9800188E3,1.4574728E0,3.9406892E3,3.932947E1],"tree_param":{"num_deleted":"0","num_feature":"59","num_nodes":"23","size_leaf_vector":"1"}},{"base_weights":[2.838057E-4,1.4527215E0,-1.3236846E0,-1.8922804E-1,1.4923935E-1,-1.4198687E0,1.3404585E0,1.4625661E-1,-1.4692977E-1,-8.7734675E-1,-1.451775E0,1.48396E-1,-9.499699E-1,-1.4860234E-1,1.4670978E-1,-1.4538661E0,1.1657286E-1,9.066162E-2,-1.3403313E-1,-1.4927846E0,-1.3470773E0,-1.4934991E-1,-2.4212934E-2,2.717454E-1,-1.4815685E-1],"categories":[],"categories_nodes":[],"categories_segments":[],"categories_sizes":[],"default_left":[0,0,0,0,0,0,0,0,0,0,0,0,0,0,0,0,0,0,0,0,0,0,0,0,0],"id":4,"left_children":[1,3,5,7,-1,9,11,-1,-1,13,15,-1,17,-1,-1,19,-1,-1,-1,21,23,-1,-1,-1,-1],"loss_changes":[1.5355375E4,2.4832275E2,1.0723394E3,1.9396872E2,0E0,6.85249E1,4.942148E1,0E0,0E0,3.2539264E2,2.253125E1,0E0,7.8987656E0,0E0,0E0,1.3799805E1,0E0,0E0,0E0,2.1210938E0,5.6506995E2,0E0,0E0,0E0,0E0],"parents":[2147483647,0,0,1,1,2,2,3,3,5,5,6,6,9,9,10,10,12,12,15,15,19,19,20,20],"right_children":[2,4,6,8,-1,10,12,-1,-1,14,16,-1,18,-1,-1,20,-1,-1,-1,22,24,-1,-1,-1,-1],"split_conditions":[1.1889649E-1,6.7764474E-3,1.3455023E0,1.1573689E-1,1.4923935E-1,2.3862989E-1,2.215017E0,1.4625661E-1,-1.4692977E-1,8.0189124E-2,3.9438932E0,1.48396E-1,8.671395E-3,-1.4860234E-1,1.4670978E-1,4.4850075E-1,1.1657286E-1,9.066162E-2,-1.3403313E-1,6.975417E0,8.1986433E-1,-1.4934991E-1,-2.4212934E-2,2.717454E-1,-1.4815685E-1],"split_indices":[57,58,58,57,0,57,57,0,0,58,56,0,12,0,0,58,0,0,0,36,57,0,0,0,0],"split_type":[0,0,0,0,0,0,0,0,0,0,0,0,0,0,0,0,0,0,0,0,0,0,0,0,0],"sum_hessian":[7.9831904E3,3.8068506E3,4.17634E3,8.972017E1,3.7171304E3,4.0312654E3,1.4507466E2,3.9110126E1,5.0610046E1,2.2549654E2,3.8057688E3,1.3685258E2,8.222072E0,1.7930946E2,4.6187077E1,3.803175E3,2.593865E0,1.1986591E0,7.023412E0,2.777832E3,1.0253429E3,2.7760522E3,1.7798722E0,3.2225746E1,9.931171E2],"tree_param":{"num_deleted":"0","num_feature":"59","num_nodes":"25","size_leaf_vector":"1"}},{"base_weights":[2.771654E-4,1.3861545E0,-1.2605327E0,-1.8012667E-1,1.4240701E-1,-1.3521214E0,1.2775502E0,1.3943276E-1,-1.4010191E-1,-1.0130715E0,-1.3998106E0,1.4156364E-1,-8.9409536E-1,-1.4190674E0,1.7402362E0,-1.4016229E0,1.0413523E-1,8.671878E-2,-1.2746853E-1,-1.4305565E-1,-7.125277E-1,1.3975823E-1,2.4116705E-1,-1.4025768E0,7.817086E-2,8.976019E-2,-1.2323973E-1,-1.4074941E-1,-9.174523E-2],"categories":[],"categories_nodes":[],"categories_segments":[],"categories_sizes":[],"default_left":[0,0,0,0,0,0,0,0,0,0,0,0,0,0,0,0,0,0,0,0,0,0,0,0,0,0,0,0,0],"id":5,"left_children":[1,3,5,7,-1,9,11,-1,-1,13,15,-1,17,19,21,23,-1,-1,-1,-1,25,-1,-1,27,-1,-1,-1,-1,-1],"loss_changes":[1.3213241E4,2.1418555E2,9.221865E2,1.6732259E2,0E0,6.038379E1,4.2775696E1,0E0,0E0,5.333762E2,1.627246E1,0E0,7.0636196E0,2.3449707E0,1.0774902E1,8.066406E0,0E0,0E0,0E0,0E0,8.32502E0,0E0,0E0,6.6884766E0,0E0,0E0,0E0,0E0,0E0],"parents":[2147483647,0,0,1,1,2,2,3,3,5,5,6,6,9,9,10,10,12,12,13,13,14,14,15,15,20,20,23,23],"right_children":[2,4,6,8,-1,10,12,-1,-1,14,16,-1,18,20,22,24,-1,-1,-1,-1,26,-1,-1,28,-1,-1,-1,-1,-1],"split_conditions":[1.1889649E-1,6.7764474E-3,1.3455023E0,1.1573689E-1,1.4240701E-1,3.560155E-1,2.215017E0,1.3943276E-1,-1.4010191E-1,1.5672971E-1,3.9438932E0,1.4156364E-1,8.671395E-3,1.4950025E-1,2.3862989E-1,4.5491676E0,1.0413523E-1,8.671878E-2,-1.2746853E-1,-1.4305565E-1,2.3862989E-1,1.3975823E-1,2.4116705E-1,1.196002E0,7.817086E-2,8.976019E-2,-1.2323973E-1,-1.4074941E-1,-9.174523E-2],"split_indices":[57,58,58,57,0,57,57,0,0,58,56,0,12,58,57,52,0,0,0,0,57,0,0,58,0,0,0,0,0],"split_type":[0,0,0,0,0,0,0,0,0,0,0,0,0,0,0,0,0,0,0,0,0,0,0,0,0,0,0,0,0],"sum_hessian":[7.55997E3,3.6013171E3,3.958653E3,8.50294E1,3.5162876E3,3.8212285E3,1.3742458E2,3.7075302E1,4.7954105E1,4.7394333E2,3.3472852E3,1.2953603E2,7.8885484E0,4.134601E2,6.0483192E1,3.3452278E3,2.0575752E0,1.1745344E0,6.714014E0,4.058361E2,7.6240416E0,4.2086582E1,1.8396608E1,3.344124E3,1.103587E0,1.6834633E0,5.9405785E0,3.3086855E3,3.543844E1],"tree_param":{"num_deleted":"0","num_feature":"59","num_nodes":"29","size_leaf_vector":"1"}},{"base_weights":[3.484104E-4,1.3312403E0,-1.2077041E0,-1.725246E-1,1.36772E-1,-1.2954484E0,1.2252729E0,1.337441E-1,-1.3442294E-1,-9.6784544E-1,-1.3416612E0,1.3591062E-1,-8.451823E-1,-1.3613697E0,1.6211982E0,-1.3436447E0,8.377486E-2,8.311045E-2,-1.2181889E-1,-1.3726324E-1,-6.749294E-1,1.3407858E-1,2.1092749E-1,-1.3445973E0,7.521906E-2,8.621622E-2,-1.1798308E-1,-1.3496698E-1,-8.57891E-2],"categories":[],"categories_nodes":[],"categories_segments":[],"categories_sizes":[],"default_left":[0,0,0,0,0,0,0,0,0,0,0,0,0,0,0,0,0,0,0,0,0,0,0,0,0,0,0,0,0],"id":6,"left_children":[1,3,5,7,-1,9,11,-1,-1,13,15,-1,17,19,21,23,-1,-1,-1,-1,25,-1,-1,27,-1,-1,-1,-1,-1],"loss_changes":[1.1444921E4,1.8603662E2,7.9816943E2,1.452954E2,0E0,5.3233887E1,3.728238E1,0E0,0E0,4.5955606E2,1.4761719E1,0E0,6.3483944E0,2.09021E0,5.340317E0,7.3027344E0,0E0,0E0,0E0,0E0,7.4324756E0,0E0,0E0,6.6206055E0,0E0,0E0,0E0,0E0,0E0],"parents":[2147483647,0,0,1,1,2,2,3,3,5,5,6,6,9,9,10,10,12,12,13,13,14,14,15,15,20,20,23,23],"right_children":[2,4,6,8,-1,10,12,-1,-1,14,16,-1,18,20,22,24,-1,-1,-1,-1,26,-1,-1,28,-1,-1,-1,-1,-1],"split_conditions":[1.1889649E-1,6.7764474E-3,1.3455023E0,1.1573689E-1,1.36772E-1,3.560155E-1,2.215017E0,1.337441E-1,-1.3442294E-1,1.5672971E-1,3.7560887E0,1.3591062E-1,8.671395E-3,1.4950025E-1,2.3862989E-1,4.5491676E0,8.377486E-2,8.311045E-2,-1.2181889E-1,-1.3726324E-1,2.3862989E-1,1.3407858E-1,2.1092749E-1,1.196002E0,7.521906E-2,8.621622E-2,-1.1798308E-1,-1.3496698E-1,-8.57891E-2],"split_indices":[57,58,58,57,0,57,57,0,0,58,56,0,12,58,57,52,0,0,0,0,57,0,0,58,0,0,0,0,0],"split_type":[0,0,0,0,0,0,0,0,0,0,0,0,0,0,0,0,0,0,0,0,0,0,0,0,0,0,0,0,0],"sum_hessian":[7.116429E3,3.3860122E3,3.730417E3,8.0107185E1,3.305905E3,3.6010154E3,1.2940154E2,3.4939507E1,4.5167683E1,4.4788678E2,3.1531287E3,1.21867645E2,7.5338926E0,3.8920355E2,5.86832E1,3.1506445E3,2.484021E0,1.1477582E0,6.3861346E0,3.8193732E2,7.266251E0,3.9650223E1,1.903298E1,3.1495715E3,1.0730186E0,1.6216902E0,5.644561E0,3.11533E3,3.4241634E1],"tree_param":{"num_deleted":"0","num_feature":"59","num_nodes":"29","size_leaf_vector":"1"}},{"base_weights":[4.256254E-4,1.2853551E0,-1.1631472E0,-1.6607863E-1,1.3206479E-1,-1.2476529E0,1.1812159E0,1.2893373E-1,-1.2963296E-1,-9.301339E-1,-1.292529E0,1.3117081E-1,-8.017387E-1,-1.313124E0,1.5270888E0,-1.294507E0,7.9281114E-2,7.979071E-2,-1.1688383E-1,-1.3242726E-1,-6.4119005E-1,1.2928191E-1,1.8947393E-1,-1.2962188E0,8.328449E-2,8.294624E-2,-1.1334822E-1,-1.2971783E-1,7.2472416E-2,1.4632975E-1,-1.00385286E-1],"categories":[],"categories_nodes":[],"categories_segments":[],"categories_sizes":[],"default_left":[0,0,0,0,0,0,0,0,0,0,0,0,0,0,0,0,0,0,0,0,0,0,0,0,0,0,0,0,0,0,0],"id":7,"left_children":[1,3,5,7,-1,9,11,-1,-1,13,15,-1,17,19,21,23,-1,-1,-1,-1,25,-1,-1,27,29,-1,-1,-1,-1,-1,-1],"loss_changes":[9.968547E3,1.6252588E2,6.946577E2,1.2686071E2,0E0,4.692627E1,3.2685028E1,0E0,0E0,3.9899017E2,1.3222656E1,0E0,5.729593E0,1.888855E0,2.4895172E0,7.076172E0,0E0,0E0,0E0,0E0,6.662545E0,0E0,0E0,6.661621E0,8.378651E0,0E0,0E0,0E0,0E0,0E0,0E0],"parents":[2147483647,0,0,1,1,2,2,3,3,5,5,6,6,9,9,10,10,12,12,13,13,14,14,15,15,20,20,23,23,24,24],"right_children":[2,4,6,8,-1,10,12,-1,-1,14,16,-1,18,20,22,24,-1,-1,-1,-1,26,-1,-1,28,30,-1,-1,-1,-1,-1,-1],"split_conditions":[1.1889649E-1,6.7764474E-3,1.3455023E0,1.1573689E-1,1.3206479E-1,3.560155E-1,2.215017E0,1.2893373E-1,-1.2963296E-1,1.5672971E-1,3.7560887E0,1.3117081E-1,8.671395E-3,1.4950025E-1,2.3862989E-1,5.068321E0,7.9281114E-2,7.979071E-2,-1.1688383E-1,-1.3242726E-1,2.3862989E-1,1.2928191E-1,1.8947393E-1,4.5491676E0,1.0438255E0,8.294624E-2,-1.1334822E-1,-1.2971783E-1,7.2472416E-2,1.4632975E-1,-1.00385286E-1],"split_indices":[57,58,58,57,0,57,57,0,0,58,56,0,12,58,57,40,0,0,0,0,57,0,0,52,57,0,0,0,0,0,0],"split_type":[0,0,0,0,0,0,0,0,0,0,0,0,0,0,0,0,0,0,0,0,0,0,0,0,0,0,0,0,0,0,0],"sum_hessian":[6.6654375E3,3.1674875E3,3.4979502E3,7.51036E1,3.0923838E3,3.3767004E3,1.2124976E2,3.2767883E1,4.2335716E1,4.2083444E2,2.955866E3,1.1408095E2,7.1688166E0,3.644896E2,5.6344826E1,2.9534438E3,2.4222302E0,1.1190375E0,6.049779E0,3.575857E2,6.90392E0,3.7173817E1,1.9171011E1,2.9498381E3,3.6056666E0,1.5596852E0,5.344235E0,2.9487964E3,1.0418208E0,1.4363514E0,2.1693153E0],"tree_param":{"num_deleted":"0","num_feature":"59","num_nodes":"31","size_leaf_vector":"1"}},{"base_weights":[5.302237E-4,1.2466048E0,-1.1250532E0,-1.6053976E-1,1.2809083E-1,-1.206795E0,1.1436317E0,1.2481468E-1,-1.255432E-1,-8.982708E-1,-1.2504491E0,1.2715176E-1,-7.6265585E-1,-1.2723237E0,1.4508747E0,-1.252145E0,1.1445695E-1,7.672168E-2,-1.1251431E-1,-1.2834492E-1,-6.105633E-1,1.2518053E-1,1.7345087E-1,-1.2575821E0,-7.4853534E-1,7.9912E-2,-1.092093E-1,-1.2585633E-1,6.990703E-2,2.5698006E-1,-1.2891412E-1],"categories":[],"categories_nodes":[],"categories_segments":[],"categories_sizes":[],"default_left":[0,0,0,0,0,0,0,0,0,0,0,0,0,0,0,0,0,0,0,0,0,0,0,0,0,0,0,0,0,0,0],"id":8,"left_children":[1,3,5,7,-1,9,11,-1,-1,13,15,-1,17,19,21,23,-1,-1,-1,-1,25,-1,-1,27,29,-1,-1,-1,-1,-1,-1],"loss_changes":[8.722603E3,1.4267578E2,6.0732764E2,1.1127401E2,0E0,4.136084E1,2.8797775E1,0E0,0E0,3.485364E2,1.2647461E1,0E0,5.1896086E0,1.7260742E0,9.150772E-1,6.6137695E0,0E0,0E0,0E0,0E0,5.993344E0,0E0,0E0,6.118164E0,6.0614906E1,0E0,0E0,0E0,0E0,0E0,0E0],"parents":[2147483647,0,0,1,1,2,2,3,3,5,5,6,6,9,9,10,10,12,12,13,13,14,14,15,15,20,20,23,23,24,24],"right_children":[2,4,6,8,-1,10,12,-1,-1,14,16,-1,18,20,22,24,-1,-1,-1,-1,26,-1,-1,28,30,-1,-1,-1,-1,-1,-1],"split_conditions":[1.1889649E-1,6.7764474E-3,1.3455023E0,1.1573689E-1,1.2809083E-1,3.560155E-1,2.215017E0,1.2481468E-1,-1.255432E-1,1.5672971E-1,4.1980534E0,1.2715176E-1,8.671395E-3,1.4950025E-1,2.3862989E-1,1.196002E0,1.1445695E-1,7.672168E-2,-1.1251431E-1,-1.2834492E-1,2.3862989E-1,1.2518053E-1,1.7345087E-1,4.5491676E0,1.8567933E0,7.9912E-2,-1.092093E-1,-1.2585633E-1,6.990703E-2,2.5698006E-1,-1.2891412E-1],"split_indices":[57,58,58,57,0,57,57,0,0,58,55,0,12,58,57,58,0,0,0,0,57,0,0,52,57,0,0,0,0,0,0],"split_type":[0,0,0,0,0,0,0,0,0,0,0,0,0,0,0,0,0,0,0,0,0,0,0,0,0,0,0,0,0,0,0],"sum_hessian":[6.217055E3,2.9505488E3,3.266506E3,7.012933E1,2.8804197E3,3.1533572E3,1.13148994E2,3.0608507E1,3.9520824E1,3.9354712E2,2.75981E3,1.0634752E2,6.8014755E0,3.3988574E2,5.3661396E1,2.758334E3,1.4760635E0,1.0889672E0,5.712508E0,3.3334213E2,6.543603E0,3.471207E1,1.8949326E1,2.7273914E3,3.0942524E1,1.4981651E0,5.045438E0,2.726381E3,1.0103639E0,3.8089495E0,2.7133574E1],"tree_param":{"num_deleted":"0","num_feature":"59","num_nodes":"31","size_leaf_vector":"1"}},{"base_weights":[6.4610405E-4,1.2135862E0,-1.0921127E0,-1.5572222E-1,1.2470603E-1,-1.1714679E0,1.1112204E0,1.2124739E-1,-1.22012995E-1,-8.7104064E-1,-1.213995E0,1.2371045E-1,-7.270954E-1,-1.2374856E0,1.3879772E0,-1.21756E0,1.0395217E-1,7.387197E-2,-1.0859722E-1,-1.2486639E-1,-5.824782E-1,1.2163444E-1,1.6102679E-1,-1.2194704E0,1.6487218E-1,1.5226407E-1,-1.034253E-1,7.708235E-2,-1.054698E-1,-1.2248778E-1,-7.269684E-2,1.409819E-1,-9.111459E-2],"categories":[],"categories_nodes":[],"categories_segments":[],"categories_sizes":[],"default_left":[0,0,0,0,0,0,0,0,0,0,0,0,0,0,0,0,0,0,0,0,0,0,0,0,0,0,0,0,0,0,0,0,0],"id":9,"left_children":[1,3,5,7,-1,9,11,-1,-1,13,15,-1,17,19,21,23,25,-1,-1,-1,27,-1,-1,29,31,-1,-1,-1,-1,-1,-1,-1,-1],"loss_changes":[7.6619565E3,1.2577051E2,5.3300366E2,9.79818E1,0E0,3.645044E1,2.5482574E1,0E0,0E0,3.0600128E2,1.2197998E1,0E0,4.714966E0,1.5922241E0,1.6723633E-2,6.9682617E0,1.425443E1,0E0,0E0,0E0,5.4079075E0,0E0,0E0,5.9243164E0,7.2011456E0,0E0,0E0,0E0,0E0,0E0,0E0,0E0,0E0],"parents":[2147483647,0,0,1,1,2,2,3,3,5,5,6,6,9,9,10,10,12,12,13,13,14,14,15,15,16,16,20,20,23,23,24,24],"right_children":[2,4,6,8,-1,10,12,-1,-1,14,16,-1,18,20,22,24,26,-1,-1,-1,28,-1,-1,30,32,-1,-1,-1,-1,-1,-1,-1,-1],"split_conditions":[1.1889649E-1,6.7764474E-3,1.3455023E0,1.1573689E-1,1.2470603E-1,3.560155E-1,2.215017E0,1.2124739E-1,-1.22012995E-1,1.5672971E-1,3.5682843E0,1.2371045E-1,8.671395E-3,1.4950025E-1,2.3862989E-1,5.068321E0,6.217662E-2,7.387197E-2,-1.0859722E-1,-1.2486639E-1,2.3862989E-1,1.2163444E-1,1.6102679E-1,1.196002E0,1.0438255E0,1.5226407E-1,-1.034253E-1,7.708235E-2,-1.054698E-1,-1.2248778E-1,-7.269684E-2,1.409819E-1,-9.111459E-2],"split_indices":[57,58,58,57,0,57,57,0,0,58,56,0,12,58,57,40,7,0,0,0,57,0,0,58,57,0,0,0,0,0,0,0,0],"split_type":[0,0,0,0,0,0,0,0,0,0,0,0,0,0,0,0,0,0,0,0,0,0,0,0,0,0,0,0,0,0,0,0,0],"sum_hessian":[5.7786416E3,2.7386665E3,3.0399749E3,6.526464E1,2.6734019E3,2.9347454E3,1.0522942E2,2.8496265E1,3.676837E1,3.6657852E2,2.568167E3,9.879143E1,6.437999E0,3.1580295E2,5.077555E1,2.5613147E3,6.8523407E0,1.0580447E0,5.3799543E0,3.096128E2,6.1901727E0,3.230466E1,1.8470888E1,2.557898E3,3.416736E0,2.8999772E0,3.9523633E0,1.4376816E0,4.752491E0,2.5286477E3,2.9250183E1,1.4402064E0,1.9765296E0],"tree_param":{"num_deleted":"0","num_feature":"59","num_nodes":"33","size_leaf_vector":"1"}},{"base_weights":[7.3280575E-4,1.1852373E0,-1.063345E0,-1.5148391E-1,1.21801354E-1,-1.1406138E0,1.0829924E0,1.18125275E-1,-1.1893501E-1,-8.475337E-1,-1.1820912E0,1.2073839E-1,-6.9441456E-1,-1.207488E0,1.3352627E-1,-1.1856716E0,1.0305715E-1,7.121536E-2,-1.0504532E-1,-1.218785E-1,-5.564935E-1,-1.192052E0,-6.323123E-1,1.4402086E-1,-1.0003497E-1,7.4431844E-2,-1.0205474E-1,-1.19785346E-1,-6.894985E-2,1.9844131E-1,-1.0678239E-1],"categories":[],"categories_nodes":[],"categories_segments":[],"categories_sizes":[],"default_left":[0,0,0,0,0,0,0,0,0,0,0,0,0,0,0,0,0,0,0,0,0,0,0,0,0,0,0,0,0,0,0],"id":10,"left_children":[1,3,5,7,-1,9,11,-1,-1,13,15,-1,17,19,-1,21,23,-1,-1,-1,25,27,29,-1,-1,-1,-1,-1,-1,-1,-1],"loss_changes":[6.7526113E3,1.11261475E2,4.692849E2,8.656358E1,0E0,3.211914E1,2.2634521E1,0E0,0E0,2.6979358E2,1.1093018E1,0E0,4.29515E0,1.4804688E0,0E0,7.6411133E0,1.2571407E1,0E0,0E0,0E0,4.8928823E0,6.024658E0,3.5433876E1,0E0,0E0,0E0,0E0,0E0,0E0,0E0,0E0],"parents":[2147483647,0,0,1,1,2,2,3,3,5,5,6,6,9,9,10,10,12,12,13,13,15,15,16,16,20,20,21,21,22,22],"right_children":[2,4,6,8,-1,10,12,-1,-1,14,16,-1,18,20,-1,22,24,-1,-1,-1,26,28,30,-1,-1,-1,-1,-1,-1,-1,-1],"split_conditions":[1.1889649E-1,6.7764474E-3,1.3455023E0,1.1573689E-1,1.21801354E-1,3.560155E-1,2.215017E0,1.18125275E-1,-1.1893501E-1,1.5672971E-1,3.5682843E0,1.2073839E-1,8.671395E-3,1.4950025E-1,1.3352627E-1,3.0327785E0,6.217662E-2,7.121536E-2,-1.0504532E-1,-1.218785E-1,2.3862989E-1,1.196002E0,5.834449E-1,1.4402086E-1,-1.0003497E-1,7.4431844E-2,-1.0205474E-1,-1.19785346E-1,-6.894985E-2,1.9844131E-1,-1.0678239E-1],"split_indices":[57,58,58,57,0,57,57,0,0,58,56,0,12,58,0,52,7,0,0,0,57,58,57,0,0,0,0,0,0,0,0],"split_type":[0,0,0,0,0,0,0,0,0,0,0,0,0,0,0,0,0,0,0,0,0,0,0,0,0,0,0,0,0,0,0],"sum_hessian":[5.3554937E3,2.5342815E3,2.8212122E3,6.056631E1,2.4737153E3,2.7236292E3,9.758292E1,2.6455862E1,3.4110447E1,3.4032486E2,2.3833044E3,9.1500015E1,6.082903E0,2.925317E2,4.7793148E1,2.3767603E3,6.5440755E0,1.0266802E0,5.0562224E0,2.8668454E2,5.8471656E0,2.3485269E3,2.8233467E1,2.820656E0,3.7234194E0,1.378652E0,4.4685135E0,2.320357E3,2.8169815E1,3.5210564E0,2.471241E1],"tree_param":{"num_deleted":"0","num_feature":"59","num_nodes":"31","size_leaf_vector":"1"}},{"base_weights":[7.994134E-4,1.160738E0,-1.0381814E0,-1.4771464E-1,1.1929261E-1,-1.1136318E0,1.0581807E0,1.1536536E-1,-1.1622586E-1,-1.1804775E0,-9.2931545E-1,1.181515E-1,-6.641146E-1,-1.1815434E0,3.168232E-2,1.8774626E0,-1.172089E0,-1.0120308E-1,5.5053737E-2,-1.1826153E0,9.2015666E-4,1.2690896E-1,3.019082E0,3.6138516E-2,-1.181421E0,-1.0605245E-1,-1.1902054E-1,3.1881487E-1,8.335317E-2,-9.45273E-2,2.326808E-1,-1.1845732E-1,3.555227E-2],"categories":[],"categories_nodes":[],"categories_segments":[],"categories_sizes":[],"default_left":[0,0,0,0,0,0,0,0,0,0,0,0,0,0,0,0,0,0,0,0,0,0,0,0,0,0,0,0,0,0,0,0,0],"id":11,"left_children":[1,3,5,7,-1,9,11,-1,-1,13,15,-1,17,19,-1,21,23,-1,-1,25,-1,-1,27,29,31,-1,-1,-1,-1,-1,-1,-1,-1],"loss_changes":[5.9685386E3,9.873071E1,4.1439673E2,7.669407E1,0E0,2.9978271E1,2.0172478E1,0E0,0E0,3.3220215E0,4.6281488E2,0E0,3.405222E0,2.3671875E0,0E0,3.381079E1,7.064575E0,0E0,0E0,4.4702148E-1,0E0,0E0,4.0366516E0,1.5111506E1,3.4152832E0,0E0,0E0,0E0,0E0,0E0,0E0,0E0,0E0],"parents":[2147483647,0,0,1,1,2,2,3,3,5,5,6,6,9,9,10,10,12,12,13,13,15,15,16,16,19,19,22,22,23,23,24,24],"right_children":[2,4,6,8,-1,10,12,-1,-1,14,16,-1,18,20,-1,22,24,-1,-1,26,-1,-1,28,30,32,-1,-1,-1,-1,-1,-1,-1,-1],"split_conditions":[1.1889649E-1,6.7764474E-3,1.3455023E0,1.1573689E-1,1.1929261E-1,4.4850075E-1,2.215017E0,1.1536536E-1,-1.1622586E-1,5.013673E0,8.1986433E-1,1.181515E-1,6.818019E-1,6.975417E0,3.168232E-2,3.560155E-1,9.309905E-1,-1.0120308E-1,5.5053737E-2,2.3862989E-1,9.2015666E-4,1.2690896E-1,3.7560887E0,5.232509E-1,3.2019448E0,-1.0605245E-1,-1.1902054E-1,3.1881487E-1,8.335317E-2,-9.45273E-2,2.326808E-1,-1.1845732E-1,3.555227E-2],"split_indices":[57,58,58,57,0,58,57,0,0,26,57,0,32,36,0,57,57,0,0,57,0,0,56,58,8,0,0,0,0,0,0,0,0],"split_type":[0,0,0,0,0,0,0,0,0,0,0,0,0,0,0,0,0,0,0,0,0,0,0,0,0,0,0,0,0,0,0,0,0],"sum_hessian":[4.950511E3,2.3390417E3,2.6114692E3,5.607301E1,2.2829688E3,2.5211973E3,9.027199E1,2.4504133E1,3.1568876E1,1.8462264E3,6.749708E2,8.453256E1,5.739426E0,1.8451239E3,1.1025202E0,5.3198116E1,6.217727E2,4.591177E0,1.1482493E0,1.8434712E3,1.6527743E0,3.6081703E1,1.7116411E1,4.7435613E0,6.170292E2,1.1613311E2,1.727338E3,1.5461615E1,1.6547966E0,3.731976E0,1.0115854E0,6.1599506E2,1.0340968E0],"tree_param":{"num_deleted":"0","num_feature":"59","num_nodes":"33","size_leaf_vector":"1"}},{"base_weights":[8.532381E-4,1.1394448E0,-1.015366E0,-1.4432666E-1,1.1711377E-1,-1.0864995E0,1.1131618E0,1.1290196E-1,-1.1381956E-1,-1.1561347E0,-8.971954E-1,1.1582684E-1,-1.6698678E-1,-1.1572573E0,2.9931555E-2,1.700205E0,-1.1478992E0,-7.130716E-2,5.4104514E-2,-1.1583946E0,8.627316E-4,1.2307274E-1,2.4389923E0,-5.091509E-1,-1.1695096E0,-1.022886E-1,-1.1670039E-1,2.5502187E-1,8.366235E-2,-1.1143243E-1,3.1012723E-1,-1.1729907E-1,3.8347762E-2],"categories":[],"categories_nodes":[],"categories_segments":[],"categories_sizes":[],"default_left":[0,0,0,0,0,0,0,0,0,0,0,0,0,0,0,0,0,0,0,0,0,0,0,0,0,0,0,0,0,0,0,0,0],"id":12,"left_children":[1,3,5,7,-1,9,11,-1,-1,13,15,-1,17,19,-1,21,23,-1,-1,25,-1,-1,27,29,31,-1,-1,-1,-1,-1,-1,-1,-1],"loss_changes":[5.2871606E3,8.7848145E1,3.6678687E2,6.811754E1,0E0,2.9768555E1,4.7305756E0,0E0,0E0,3.13208E0,4.1409607E2,0E0,1.7577689E0,2.269287E0,0E0,1.64617E1,7.380249E0,0E0,0E0,7.922363E-1,0E0,0E0,1.5709457E0,4.8640144E1,3.467163E0,0E0,0E0,0E0,0E0,0E0,0E0,0E0,0E0],"parents":[2147483647,0,0,1,1,2,2,3,3,5,5,6,6,9,9,10,10,12,12,13,13,15,15,16,16,19,19,22,22,23,23,24,24],"right_children":[2,4,6,8,-1,10,12,-1,-1,14,16,-1,18,20,-1,22,24,-1,-1,26,-1,-1,28,30,32,-1,-1,-1,-1,-1,-1,-1,-1],"split_conditions":[1.1889649E-1,6.7764474E-3,1.4202523E0,1.1573689E-1,1.1711377E-1,4.4850075E-1,2.215017E0,1.1290196E-1,-1.1381956E-1,5.013673E0,8.1986433E-1,1.1582684E-1,4.925308E-2,6.975417E0,2.9931555E-2,3.560155E-1,1.0438255E0,-7.130716E-2,5.4104514E-2,2.3862989E-1,8.627316E-4,1.2307274E-1,3.7560887E0,5.98001E-1,3.0747352E0,-1.022886E-1,-1.1670039E-1,2.5502187E-1,8.366235E-2,-1.1143243E-1,3.1012723E-1,-1.1729907E-1,3.8347762E-2],"split_indices":[57,58,58,57,0,58,57,0,0,26,57,0,32,36,0,57,57,0,0,57,0,0,56,58,8,0,0,0,0,0,0,0,0],"split_type":[0,0,0,0,0,0,0,0,0,0,0,0,0,0,0,0,0,0,0,0,0,0,0,0,0,0,0,0,0,0,0,0,0],"sum_hessian":[4.5674844E3,2.1539905E3,2.4134937E3,5.1809494E1,2.102181E3,2.335919E3,7.7574776E1,2.2651886E1,2.915761E1,1.7039976E3,6.319213E2,7.50264E1,2.54838E0,1.7028892E3,1.1084857E0,5.51158E1,5.7680554E2,1.4347106E0,1.1136692E0,1.7012361E3,1.6530384E0,3.5330307E1,1.9785492E1,1.9679964E1,5.571256E2,1.0878571E2,1.5924503E3,1.7948116E1,1.8373754E0,1.7446901E1,2.2330625E0,5.561237E2,1.0018654E0],"tree_param":{"num_deleted":"0","num_feature":"59","num_nodes":"33","size_leaf_vector":"1"}},{"base_weights":[9.393774E-4,1.1208462E0,-9.950895E-1,-1.4124921E-1,1.1521234E-1,-1.0648229E0,1.0919476E0,1.1068217E-1,-1.1166306E-1,-8.300486E-1,-1.1221193E0,1.1382212E-1,-1.5952693E-1,-1.1447244E-1,1.4465932E0,-1.1267284E0,5.836526E-1,-6.9493495E-2,5.291889E-2,1.2581453E-1,2.095706E0,-1.1287332E0,9.3432836E-2,1.23476885E-1,-6.871884E-2,2.2818811E-1,2.0256853E-2,-1.13266945E-1,-5.0466605E-2,1.0361528E-1,-7.5402044E-2],"categories":[],"categories_nodes":[],"categories_segments":[],"categories_sizes":[],"default_left":[0,0,0,0,0,0,0,0,0,0,0,0,0,0,0,0,0,0,0,0,0,0,0,0,0,0,0,0,0,0,0],"id":13,"left_children":[1,3,5,7,-1,9,11,-1,-1,13,15,-1,17,-1,19,21,23,-1,-1,-1,25,27,29,-1,-1,-1,-1,-1,-1,-1,-1],"loss_changes":[4.693598E3,7.835132E1,3.25281E2,6.0630085E1,0E0,2.8064209E1,4.3800583E0,0E0,0E0,3.073488E2,1.42578125E1,0E0,1.6444124E0,0E0,3.7557678E0,4.326416E0,5.250887E0,0E0,0E0,0E0,3.1524734E0,3.6601562E0,3.780383E0,0E0,0E0,0E0,0E0,0E0,0E0,0E0,0E0],"parents":[2147483647,0,0,1,1,2,2,3,3,5,5,6,6,9,9,10,10,12,12,14,14,15,15,16,16,20,20,21,21,22,22],"right_children":[2,4,6,8,-1,10,12,-1,-1,14,16,-1,18,-1,20,22,24,-1,-1,-1,26,28,30,-1,-1,-1,-1,-1,-1,-1,-1],"split_conditions":[1.1889649E-1,6.7764474E-3,1.4202523E0,1.1573689E-1,1.1521234E-1,4.7003314E-1,2.215017E0,1.1068217E-1,-1.1166306E-1,2.2425038E-1,3.5682843E0,1.1382212E-1,1.4950025E0,-1.1447244E-1,3.560155E-1,5.068321E0,6.217662E-2,-6.9493495E-2,5.291889E-2,1.2581453E-1,2.333051E0,4.1756024E0,1.0438255E0,1.23476885E-1,-6.871884E-2,2.2818811E-1,2.0256853E-2,-1.13266945E-1,-5.0466605E-2,1.0361528E-1,-7.5402044E-2],"split_indices":[57,58,58,57,0,57,57,0,0,58,56,0,58,0,57,40,7,0,0,0,56,8,57,0,0,0,0,0,0,0,0],"split_type":[0,0,0,0,0,0,0,0,0,0,0,0,0,0,0,0,0,0,0,0,0,0,0,0,0,0,0,0,0,0,0],"sum_hessian":[4.2057715E3,1.9797129E3,2.2260588E3,4.778993E1,1.931923E3,2.1545588E3,7.149978E1,2.0905312E1,2.6884617E1,4.257046E2,1.7288544E3,6.903759E1,2.462187E0,3.744461E2,5.1258472E1,1.724534E3,4.320305E0,1.3801936E0,1.0819935E0,4.200267E1,9.255802E0,1.72178E3,2.7539885E0,2.8754501E0,1.4448545E0,8.2401085E0,1.0156931E0,1.7101783E3,1.1601679E1,1.198307E0,1.5556816E0],"tree_param":{"num_deleted":"0","num_feature":"59","num_nodes":"31","size_leaf_vector":"1"}},{"base_weights":[1.0572486E-3,1.1045288E0,-9.7703624E-1,-1.3842505E-1,1.1354598E-1,-1.0455433E0,1.0727915E0,1.0866282E-1,-1.0971313E-1,-1.1168282E0,-8.528306E-1,1.1203994E-1,-1.525285E-1,-1.1180483E0,2.8035296E-2,1.5839608E0,-1.1064522E0,-6.735536E-2,5.0679874E-2,-1.1192704E0,1.0865935E-3,1.171542E-1,2.118407E0,-4.0637007E-1,-1.1312183E0,-9.646257E-2,-1.1293206E-1,2.1918371E-1,7.670965E-2,-1.0701525E-1,2.7369222E-1,-1.1352738E-1,3.3607587E-2],"categories":[],"categories_nodes":[],"categories_segments":[],"categories_sizes":[],"default_left":[0,0,0,0,0,0,0,0,0,0,0,0,0,0,0,0,0,0,0,0,0,0,0,0,0,0,0,0,0,0,0,0,0],"id":14,"left_children":[1,3,5,7,-1,9,11,-1,-1,13,15,-1,17,19,-1,21,23,-1,-1,25,-1,-1,27,29,31,-1,-1,-1,-1,-1,-1,-1,-1],"loss_changes":[4.174578E3,7.003003E1,2.8905737E2,5.4067097E1,0E0,2.6311035E1,4.0679092E0,0E0,0E0,2.7774658E0,3.3555762E2,0E0,1.5020185E0,2.005005E0,0E0,8.831558E0,8.03241E0,0E0,0E0,1.1531982E0,0E0,0E0,4.1422272E-1,4.110162E1,3.1932373E0,0E0,0E0,0E0,0E0,0E0,0E0,0E0,0E0],"parents":[2147483647,0,0,1,1,2,2,3,3,5,5,6,6,9,9,10,10,12,12,13,13,15,15,16,16,19,19,22,22,23,23,24,24],"right_children":[2,4,6,8,-1,10,12,-1,-1,14,16,-1,18,20,-1,22,24,-1,-1,26,-1,-1,28,30,32,-1,-1,-1,-1,-1,-1,-1,-1],"split_conditions":[1.1889649E-1,6.7764474E-3,1.4202523E0,1.1573689E-1,1.1354598E-1,4.4850075E-1,2.215017E0,1.0866282E-1,-1.0971313E-1,5.013673E0,8.1986433E-1,1.1203994E-1,1.4950025E0,6.975417E0,2.8035296E-2,3.560155E-1,1.0438255E0,-6.735536E-2,5.0679874E-2,2.3862989E-1,1.0865935E-3,1.171542E-1,3.7560887E0,5.98001E-1,3.0500493E0,-9.646257E-2,-1.1293206E-1,2.1918371E-1,7.670965E-2,-1.0701525E-1,2.7369222E-1,-1.1352738E-1,3.3607587E-2],"split_indices":[57,58,58,57,0,58,57,0,0,26,57,0,58,36,0,57,57,0,0,57,0,0,56,58,8,0,0,0,0,0,0,0,0],"split_type":[0,0,0,0,0,0,0,0,0,0,0,0,0,0,0,0,0,0,0,0,0,0,0,0,0,0,0,0,0,0,0,0,0],"sum_hessian":[3.865863E3,1.8164452E3,2.0494177E3,4.402039E1,1.7724248E3,1.9836134E3,6.580424E1,1.9267094E1,2.4753296E1,1.4444961E3,5.391174E2,6.342556E1,2.378674E0,1.4434354E3,1.0606532E0,5.0327404E1,4.8878995E2,1.3166392E0,1.0620348E0,1.4418829E3,1.5524664E0,3.0208405E1,2.0119001E1,1.7295414E1,4.7149454E2,9.3905785E1,1.3479772E3,1.849213E1,1.6268704E0,1.4824421E1,2.4709923E0,4.704206E2,1.0739292E0],"tree_param":{"num_deleted":"0","num_feature":"59","num_nodes":"33","size_leaf_vector":"1"}},{"base_weights":[1.164805E-3,1.0901561E0,-9.6041334E-1,-1.3580573E-1,1.1208016E-1,-1.0277903E0,1.0553163E0,1.0680828E-1,-1.0793406E-1,-1.1086426E0,-8.5670096E-1,1.10445045E-1,-1.4611435E-1,-1.110058E0,1.0203765E-3,1.4961466E0,-1.0796118E0,-6.572391E-2,4.960282E-2,-1.111241E0,3.469929E-3,1.1954929E-1,1.9433972E-1,-1.0879269E0,1.4391072E-1,-1.1127656E-1,-6.825385E-2,-1.0946279E-1,1.2186432E-1],"categories":[],"categories_nodes":[],"categories_segments":[],"categories_sizes":[],"default_left":[0,0,0,0,0,0,0,0,0,0,0,0,0,0,0,0,0,0,0,0,0,0,0,0,0,0,0,0,0],"id":15,"left_children":[1,3,5,7,-1,9,11,-1,-1,13,15,-1,17,19,-1,21,23,-1,-1,25,-1,-1,-1,27,-1,-1,-1,-1,-1],"loss_changes":[3.7184062E3,6.271277E1,2.5720325E2,4.8294285E1,0E0,2.4299927E1,3.7911377E0,0E0,0E0,1.9688721E0,3.1114832E2,0E0,1.4088002E0,1.7106934E0,0E0,4.6009674E0,1.2868164E1,0E0,0E0,4.650879E-2,0E0,0E0,0E0,9.65686E0,0E0,0E0,0E0,0E0,0E0],"parents":[2147483647,0,0,1,1,2,2,3,3,5,5,6,6,9,9,10,10,12,12,13,13,15,15,16,16,19,19,23,23],"right_children":[2,4,6,8,-1,10,12,-1,-1,14,16,-1,18,20,-1,22,24,-1,-1,26,-1,-1,-1,28,-1,-1,-1,-1,-1],"split_conditions":[1.1889649E-1,6.7764474E-3,1.4202523E0,1.1573689E-1,1.1208016E-1,3.7375063E-1,2.215017E0,1.0680828E-1,-1.0793406E-1,6.975417E0,6.9657695E-1,1.10445045E-1,4.925308E-2,5.001E0,1.0203765E-3,3.560155E-1,3.0181189E0,-6.572391E-2,4.960282E-2,3.0327785E0,3.469929E-3,1.1954929E-1,1.9433972E-1,3.9664016E0,1.4391072E-1,-1.1127656E-1,-6.825385E-2,-1.0946279E-1,1.2186432E-1],"split_indices":[57,58,58,57,0,58,57,0,0,36,57,0,32,26,0,57,48,0,0,52,0,0,0,8,0,0,0,0,0],"split_type":[0,0,0,0,0,0,0,0,0,0,0,0,0,0,0,0,0,0,0,0,0,0,0,0,0,0,0,0,0],"sum_hessian":[3.548977E3,1.6641671E3,1.8848099E3,4.0501022E1,1.623666E3,1.8243212E3,6.048886E1,1.773734E1,2.2763683E1,1.2351447E3,5.891765E2,5.818983E1,2.2990305E0,1.2335919E3,1.5527445E0,5.04941E1,5.386824E2,1.2670166E0,1.0320139E0,1.2323475E3,1.2442812E0,3.2392193E1,1.8101906E1,5.3747614E2,1.2062953E0,1.2263906E3,5.9569325E0,5.3644305E2,1.0330365E0],"tree_param":{"num_deleted":"0","num_feature":"59","num_nodes":"29","size_leaf_vector":"1"}},{"base_weights":[1.3118631E-3,1.0774506E0,-9.456191E-1,-1.33352E-1,1.1078646E-1,-1.0120205E0,1.0392594E0,1.0508867E-1,-1.06295995E-1,-7.7363217E-1,-1.070839E0,1.09008126E-1,-1.4008561E-1,-1.0940835E0,1.3361233E0,-1.0755082E0,5.2466923E-1,-6.37585E-2,4.755755E-2,-1.095855E-1,-3.3289805E-2,1.3683635E0,3.2139063E-2,-1.0828362E0,-5.9299344E-1,1.0811398E-1,-6.0200315E-2,1.2100746E-1,1.7941014E-1,-1.0850278E-1,9.201996E-3,1.761127E-1,-1.0836225E-1],"categories":[],"categories_nodes":[],"categories_segments":[],"categories_sizes":[],"default_left":[0,0,0,0,0,0,0,0,0,0,0,0,0,0,0,0,0,0,0,0,0,0,0,0,0,0,0,0,0,0,0,0,0],"id":16,"left_children":[1,3,5,7,-1,9,11,-1,-1,13,15,-1,17,19,21,23,25,-1,-1,-1,-1,27,-1,29,31,-1,-1,-1,-1,-1,-1,-1,-1],"loss_changes":[3.3171848E3,5.6257202E1,2.2927087E2,4.3200848E1,0E0,2.267212E1,3.5418434E0,0E0,0E0,2.281468E2,1.0559814E1,0E0,1.2901472E0,2.8442383E-2,1.0213699E0,4.0892334E0,3.5268047E0,0E0,0E0,0E0,0E0,7.254486E-1,0E0,3.4907227E0,2.7582712E1,0E0,0E0,0E0,0E0,0E0,0E0,0E0,0E0],"parents":[2147483647,0,0,1,1,2,2,3,3,5,5,6,6,9,9,10,10,12,12,13,13,14,14,15,15,16,16,21,21,23,23,24,24],"right_children":[2,4,6,8,-1,10,12,-1,-1,14,16,-1,18,20,22,24,26,-1,-1,-1,-1,28,-1,30,32,-1,-1,-1,-1,-1,-1,-1,-1],"split_conditions":[1.1889649E-1,6.7764474E-3,1.4202523E0,1.1573689E-1,1.1078646E-1,4.7003314E-1,2.215017E0,1.0508867E-1,-1.06295995E-1,2.2425038E-1,3.5682843E0,1.09008126E-1,1.4950025E0,2.5793843E0,3.5501938E0,1.196002E0,6.217662E-2,-6.37585E-2,4.755755E-2,-1.095855E-1,-3.3289805E-2,3.560155E-1,3.2139063E-2,5.068321E0,1.8567933E0,1.0811398E-1,-6.0200315E-2,1.2100746E-1,1.7941014E-1,-1.0850278E-1,9.201996E-3,1.761127E-1,-1.0836225E-1],"split_indices":[57,58,58,57,0,57,57,0,0,58,56,0,58,52,56,58,7,0,0,0,0,57,0,40,57,0,0,0,0,0,0,0,0],"split_type":[0,0,0,0,0,0,0,0,0,0,0,0,0,0,0,0,0,0,0,0,0,0,0,0,0,0,0,0,0,0,0,0,0],"sum_hessian":[3.2532405E3,1.5226681E3,1.7305725E3,3.7227493E1,1.4854406E3,1.6750269E3,5.55456E1,1.6314188E1,2.0913305E1,3.3429605E2,1.3407308E3,5.3323414E1,2.2221887E0,2.9063312E2,4.366293E1,1.3371437E3,3.5871425E0,1.2093416E0,1.0128471E0,2.8951968E2,1.1134357E0,4.1980625E1,1.6823049E0,1.3159148E3,2.1228851E1,2.428235E0,1.1589074E0,3.3403526E1,8.577098E0,1.3135409E3,2.3739145E0,3.2146912E0,1.801416E1],"tree_param":{"num_deleted":"0","num_feature":"59","num_nodes":"33","size_leaf_vector":"1"}},{"base_weights":[1.4691185E-3,1.0661814E0,-9.318704E-1,-1.3102883E-1,1.0964127E-1,-9.97373E-1,1.0243452E0,1.03478886E-1,-1.0477368E-1,-1.0807556E0,-8.219762E-1,1.0770456E-1,-1.3456121E-1,-1.0822994E0,1.1402436E-3,1.420215E0,-1.0461873E0,3.9707728E-2,-6.0219776E-2,-1.0836297E0,4.695242E-3,1.1476158E-1,1.7694566E-1,-1.0559081E0,1.4104967E-1,-9.421566E-2,-1.0932918E-1,-1.0635393E-1,1.1300798E-1],"categories":[],"categories_nodes":[],"categories_segments":[],"categories_sizes":[],"default_left":[0,0,0,0,0,0,0,0,0,0,0,0,0,0,0,0,0,0,0,0,0,0,0,0,0,0,0,0,0],"id":17,"left_children":[1,3,5,7,-1,9,11,-1,-1,13,15,-1,17,19,-1,21,23,-1,-1,25,-1,-1,-1,27,-1,-1,-1,-1,-1],"loss_changes":[2.962559E3,5.054651E1,2.0458325E2,3.869474E1,0E0,2.1600098E1,3.3186073E0,0E0,0E0,1.7640381E0,2.5266342E2,0E0,1.0220463E0,1.6096191E0,0E0,2.3338242E0,1.235022E1,0E0,0E0,3.8659668E-1,0E0,0E0,0E0,8.768066E0,0E0,0E0,0E0,0E0,0E0],"parents":[2147483647,0,0,1,1,2,2,3,3,5,5,6,6,9,9,10,10,12,12,13,13,15,15,16,16,19,19,23,23],"right_children":[2,4,6,8,-1,10,12,-1,-1,14,16,-1,18,20,-1,22,24,-1,-1,26,-1,-1,-1,28,-1,-1,-1,-1,-1],"split_conditions":[1.1889649E-1,6.7764474E-3,1.4202523E0,1.1573689E-1,1.0964127E-1,3.7375063E-1,2.215017E0,1.03478886E-1,-1.0477368E-1,6.975417E0,6.9657695E-1,1.0770456E-1,2.2141957E0,5.001E0,1.1402436E-3,3.560155E-1,3.0181189E0,3.9707728E-2,-6.0219776E-2,2.3862989E-1,4.695242E-3,1.1476158E-1,1.7694566E-1,3.9664016E0,1.4104967E-1,-9.421566E-2,-1.0932918E-1,-1.0635393E-1,1.1300798E-1],"split_indices":[57,58,58,57,0,58,57,0,0,36,57,0,12,26,0,57,48,0,0,57,0,0,0,8,0,0,0,0,0],"split_type":[0,0,0,0,0,0,0,0,0,0,0,0,0,0,0,0,0,0,0,0,0,0,0,0,0,0,0,0,0],"sum_hessian":[2.9792273E3,1.3916045E3,1.5876229E3,3.4192337E1,1.3574121E3,1.536659E3,5.0963863E1,1.499444E1,1.9197897E1,1.0380259E3,4.986332E2,4.881469E1,2.1491733E0,1.0365698E3,1.4560636E0,4.4843895E1,4.537893E2,1.0763717E0,1.0728016E0,1.0353904E3,1.1794375E0,2.7592606E1,1.7251287E1,4.5256873E2,1.2205857E0,7.249008E1,9.6290027E2,4.5150604E2,1.0626898E0],"tree_param":{"num_deleted":"0","num_feature":"59","num_nodes":"29","size_leaf_vector":"1"}},{"base_weights":[1.6337184E-3,1.056155E0,-9.191752E-1,-1.288078E-1,1.0862479E-1,-9.838682E-1,1.0100418E0,1.019574E-1,-1.03345595E-1,-1.0678734E0,-8.0778295E-1,1.0651338E-1,-1.3039634E-1,-1.0695387E0,1.0725252E-3,1.3687704E0,-1.0309559E0,3.7887245E-2,-5.84657E-2,-1.0709734E0,4.4360664E-3,1.12698354E-1,1.6518453E-1,-1.0412185E0,1.3006927E-1,-9.128912E-2,-1.08207226E-1,-1.0493087E-1,1.05086006E-1],"categories":[],"categories_nodes":[],"categories_segments":[],"categories_sizes":[],"default_left":[0,0,0,0,0,0,0,0,0,0,0,0,0,0,0,0,0,0,0,0,0,0,0,0,0,0,0,0,0],"id":18,"left_children":[1,3,5,7,-1,9,11,-1,-1,13,15,-1,17,19,-1,21,23,-1,-1,25,-1,-1,-1,27,-1,-1,-1,-1,-1],"loss_changes":[2.6486455E3,4.5481567E1,1.8273474E2,3.4698753E1,0E0,1.9985962E1,3.1383247E0,0E0,0E0,1.7198486E0,2.2453122E2,0E0,9.3654966E-1,1.5651855E0,0E0,1.091568E0,1.1337097E1,0E0,0E0,6.7626953E-1,0E0,0E0,0E0,8.14209E0,0E0,0E0,0E0,0E0,0E0],"parents":[2147483647,0,0,1,1,2,2,3,3,5,5,6,6,9,9,10,10,12,12,13,13,15,15,16,16,19,19,23,23],"right_children":[2,4,6,8,-1,10,12,-1,-1,14,16,-1,18,20,-1,22,24,-1,-1,26,-1,-1,-1,28,-1,-1,-1,-1,-1],"split_conditions":[1.1889649E-1,6.7764474E-3,1.4202523E0,1.1573689E-1,1.0862479E-1,3.7375063E-1,2.215017E0,1.019574E-1,-1.03345595E-1,6.975417E0,6.9657695E-1,1.0651338E-1,2.2141957E0,5.001E0,1.0725252E-3,3.560155E-1,3.0181189E0,3.7887245E-2,-5.84657E-2,2.3862989E-1,4.4360664E-3,1.12698354E-1,1.6518453E-1,3.9664016E0,1.3006927E-1,-9.128912E-2,-1.08207226E-1,-1.0493087E-1,1.05086006E-1],"split_indices":[57,58,58,57,0,58,57,0,0,36,57,0,12,26,0,57,48,0,0,57,0,0,0,8,0,0,0,0,0],"split_type":[0,0,0,0,0,0,0,0,0,0,0,0,0,0,0,0,0,0,0,0,0,0,0,0,0,0,0,0,0],"sum_hessian":[2.725715E3,1.2705356E3,1.4551794E3,3.1385855E1,1.2391499E3,1.4084398E3,4.6739586E1,1.3773901E1,1.7611954E1,9.501066E2,4.583332E2,4.4648735E1,2.0908484E0,9.486503E2,1.456322E0,4.2147297E1,4.1618588E2,1.0639824E0,1.026866E0,9.474685E2,1.18181E0,2.5417934E1,1.6729362E1,4.1491312E2,1.2727823E0,6.761856E1,8.7985E2,4.1381134E2,1.1017787E0],"tree_param":{"num_deleted":"0","num_feature":"59","num_nodes":"29","size_leaf_vector":"1"}},{"base_weights":[1.8110011E-3,1.0472075E0,-9.07244E-1,-1.266631E-1,1.0772034E-1,-9.7118896E-1,9.964564E-1,1.0050585E-1,-1.01993196E-1,-1.0558503E0,-7.943327E-1,1.05416656E-1,-1.2661775E-2,-1.0576493E0,1.0088343E-3,1.3234694E0,-1.0164688E0,-1.0591985E0,4.191238E-3,1.10795096E-1,1.5533935E-1,-1.0272845E0,1.20515004E-1,-8.8306725E-2,-1.07193604E-1,-1.0358939E-1,1.1050892E-1],"categories":[],"categories_nodes":[],"categories_segments":[],"categories_sizes":[],"default_left":[0,0,0,0,0,0,0,0,0,0,0,0,0,0,0,0,0,0,0,0,0,0,0,0,0,0,0],"id":19,"left_children":[1,3,5,7,-1,9,11,-1,-1,13,15,-1,-1,17,-1,19,21,23,-1,-1,-1,25,-1,-1,-1,-1,-1],"loss_changes":[2.3700188E3,4.0980347E1,1.633512E2,3.114773E1,0E0,1.8492676E1,2.9751549E0,0E0,0E0,1.6792603E0,1.9987375E2,0E0,0E0,1.5240479E0,0E0,2.8562927E-1,1.0429077E1,9.995117E-1,0E0,0E0,0E0,8.142944E0,0E0,0E0,0E0,0E0,0E0],"parents":[2147483647,0,0,1,1,2,2,3,3,5,5,6,6,9,9,10,10,13,13,15,15,16,16,17,17,21,21],"right_children":[2,4,6,8,-1,10,12,-1,-1,14,16,-1,-1,18,-1,20,22,24,-1,-1,-1,26,-1,-1,-1,-1,-1],"split_conditions":[1.1889649E-1,6.7764474E-3,1.4202523E0,1.1573689E-1,1.0772034E-1,3.7375063E-1,2.215017E0,1.0050585E-1,-1.01993196E-1,6.975417E0,6.9657695E-1,1.05416656E-1,-1.2661775E-2,5.001E0,1.0088343E-3,3.560155E-1,3.0181189E0,2.3862989E-1,4.191238E-3,1.10795096E-1,1.5533935E-1,4.0382595E0,1.20515004E-1,-8.8306725E-2,-1.07193604E-1,-1.0358939E-1,1.1050892E-1],"split_indices":[57,58,58,57,0,58,57,0,0,36,57,0,0,26,0,57,48,57,0,0,0,8,0,0,0,0,0],"split_type":[0,0,0,0,0,0,0,0,0,0,0,0,0,0,0,0,0,0,0,0,0,0,0,0,0,0,0],"sum_hessian":[2.4919092E3,1.1589668E3,1.3329424E3,2.8796913E1,1.1301699E3,1.290098E3,4.2844307E1,1.264776E1,1.6149153E1,8.6909235E2,4.210057E2,4.080867E1,2.0356355E0,8.6763574E2,1.4565651E0,3.949644E1,3.8150928E2,8.664517E2,1.1840576E0,2.3390343E1,1.6106098E1,3.8019592E2,1.3133378E0,6.317769E1,8.0327405E2,3.791792E2,1.0167195E0],"tree_param":{"num_deleted":"0","num_feature":"59","num_nodes":"27","size_leaf_vector":"1"}},{"base_weights":[2.0104526E-3,1.0391997E0,-8.9587724E-1,-1.24574065E-1,1.0691371E-1,-9.5916706E-1,9.8250383E-1,9.910829E-2,-1.0070037E-1,-7.139543E-1,-1.0207436E0,1.0439878E-1,-1.1834747E-2,-1.0439358E0,1.2560874E0,-1.0252032E0,4.215106E-1,-1.0467745E-1,-2.6631271E-2,1.2866469E-1,2.8545031E-2,-1.06841855E-1,-8.9038855E-1,-3.460283E-2,8.662101E-2,2.1966934E-1,-1.05289936E-1],"categories":[],"categories_nodes":[],"categories_segments":[],"categories_sizes":[],"default_left":[0,0,0,0,0,0,0,0,0,0,0,0,0,0,0,0,0,0,0,0,0,0,0,0,0,0,0],"id":20,"left_children":[1,3,5,7,-1,9,11,-1,-1,13,15,-1,-1,17,19,21,23,-1,-1,-1,-1,-1,25,-1,-1,-1,-1],"loss_changes":[2.1221707E3,3.6971924E1,1.4614612E2,2.7986261E1,0E0,1.7120361E1,2.8516731E0,0E0,0E0,1.5771329E2,6.4941406E0,0E0,0E0,1.7732239E-1,6.700363E-1,4.524536E0,1.5332754E0,0E0,0E0,0E0,0E0,0E0,1.1978407E2,0E0,0E0,0E0,0E0],"parents":[2147483647,0,0,1,1,2,2,3,3,5,5,6,6,9,9,10,10,13,13,14,14,15,15,16,16,22,22],"right_children":[2,4,6,8,-1,10,12,-1,-1,14,16,-1,-1,18,20,22,24,-1,-1,-1,-1,-1,26,-1,-1,-1,-1],"split_conditions":[1.1889649E-1,6.7764474E-3,1.4202523E0,1.1573689E-1,1.0691371E-1,4.7003314E-1,2.215017E0,9.910829E-2,-1.0070037E-1,2.2425038E-1,3.5682843E0,1.0439878E-1,-1.1834747E-2,2.5161097E0,3.5501938E0,5.98001E-1,2.6624198E0,-1.0467745E-1,-2.6631271E-2,1.2866469E-1,2.8545031E-2,-1.06841855E-1,1.0438255E0,-3.460283E-2,8.662101E-2,2.1966934E-1,-1.05289936E-1],"split_indices":[57,58,58,57,0,57,57,0,0,58,56,0,0,52,56,58,55,0,0,0,0,0,57,0,0,0,0],"split_type":[0,0,0,0,0,0,0,0,0,0,0,0,0,0,0,0,0,0,0,0,0,0,0,0,0,0,0],"sum_hessian":[2.276769E3,1.0563618E3,1.2204071E3,2.6413452E1,1.0299484E3,1.1811007E3,3.9306435E1,1.1610787E1,1.4802664E1,2.3958981E2,9.4151086E2,3.7276173E1,2.0302656E0,2.056188E2,3.3971004E1,9.388969E2,2.6139908E0,2.0452606E2,1.0927522E0,3.261848E1,1.3525233E0,7.057433E2,2.3315361E2,1.0403165E0,1.5736743E0,1.1033937E1,2.2211967E2],"tree_param":{"num_deleted":"0","num_feature":"59","num_nodes":"27","size_leaf_vector":"1"}},{"base_weights":[2.0973491E-3,1.0320121E0,-8.868326E-1,-1.2252173E-1,1.06192745E-1,-9.5732117E-1,7.7496624E-1,9.7750925E-2,-9.9453084E-2,-7.2422266E-1,-1.0157398E0,1.0780811E-1,-7.0491916E-1,-1.0327082E0,1.2374185E0,-1.0201596E0,3.8405243E-1,5.3894173E-2,-9.474603E-2,-1.0358027E-1,-2.5469435E-2,1.2720655E-1,2.2575645E-2,-1.0604508E-1,-8.906726E-1,-3.0860081E-2,8.193367E-2,2.0323029E-1,-1.0514466E-1],"categories":[],"categories_nodes":[],"categories_segments":[],"categories_sizes":[],"default_left":[0,0,0,0,0,0,0,0,0,0,0,0,0,0,0,0,0,0,0,0,0,0,0,0,0,0,0,0,0],"id":21,"left_children":[1,3,5,7,-1,9,11,-1,-1,13,15,-1,17,19,21,23,25,-1,-1,-1,-1,-1,-1,-1,27,-1,-1,-1,-1],"loss_changes":[1.9034612E3,3.339624E1,1.3145947E2,2.5167002E1,0E0,1.3848206E1,2.1376926E1,0E0,0E0,1.332593E2,5.6743164E0,0E0,3.0502725E0,1.9126892E-1,7.6758957E-1,3.4977417E0,1.2821876E0,0E0,0E0,0E0,0E0,0E0,0E0,0E0,1.0002998E2,0E0,0E0,0E0,0E0],"parents":[2147483647,0,0,1,1,2,2,3,3,5,5,6,6,9,9,10,10,12,12,13,13,14,14,15,15,16,16,24,24],"right_children":[2,4,6,8,-1,10,12,-1,-1,14,16,-1,18,20,22,24,26,-1,-1,-1,-1,-1,-1,-1,28,-1,-1,-1,-1],"split_conditions":[1.1889649E-1,6.7764474E-3,1.2707521E0,1.1573689E-1,1.06192745E-1,4.7003314E-1,1.980213E0,9.7750925E-2,-9.9453084E-2,2.2425038E-1,3.5682843E0,1.0780811E-1,8.671395E-3,2.5161097E0,3.5501938E0,5.98001E-1,2.771994E0,5.3894173E-2,-9.474603E-2,-1.0358027E-1,-2.5469435E-2,1.2720655E-1,2.2575645E-2,-1.0604508E-1,1.0438255E0,-3.0860081E-2,8.193367E-2,2.0323029E-1,-1.0514466E-1],"split_indices":[57,58,58,57,0,57,57,0,0,58,56,0,12,52,56,58,55,0,0,0,0,0,0,0,57,0,0,0,0],"split_type":[0,0,0,0,0,0,0,0,0,0,0,0,0,0,0,0,0,0,0,0,0,0,0,0,0,0,0,0,0],"sum_hessian":[2.0770994E3,9.6216895E2,1.1149304E3,2.4223003E1,9.379459E2,1.0699695E3,4.4961002E1,1.0657581E1,1.3565422E1,2.1710141E2,8.5286804E2,3.7542866E1,7.4181385E0,1.880089E2,2.9092516E1,8.5045404E2,2.41405E0,1.0110341E0,6.4071045E0,1.8693399E2,1.0748929E0,2.7880283E1,1.2122334E0,6.431434E2,2.0731065E2,1.0439243E0,1.3701258E0,1.0201421E1,1.9710924E2],"tree_param":{"num_deleted":"0","num_feature":"59","num_nodes":"29","size_leaf_vector":"1"}},{"base_weights":[2.1811565E-3,1.0255418E0,-8.7859285E-1,-1.2048849E-1,1.05547E-1,-9.4857764E-1,7.6618767E-1,9.642184E-2,-9.823899E-2,-7.147726E-1,-1.0073577E0,1.0697241E-1,-6.8376315E-1,-1.0218538E0,1.2077842E0,-1.0119787E0,3.6954656E-1,-9.289574E-2,4.8191674E-2,-1.0252291E-1,-2.4357578E-2,1.2443924E0,2.1436159E-2,-1.0532174E-1,-8.798066E-1,-2.9531905E-2,7.931844E-2,1.268173E-1,3.774262E-2,1.874577E-1,-1.0433175E-1],"categories":[],"categories_nodes":[],"categories_segments":[],"categories_sizes":[],"default_left":[0,0,0,0,0,0,0,0,0,0,0,0,0,0,0,0,0,0,0,0,0,0,0,0,0,0,0,0,0,0,0],"id":22,"left_children":[1,3,5,7,-1,9,11,-1,-1,13,15,-1,17,19,21,23,25,-1,-1,-1,-1,27,-1,-1,29,-1,-1,-1,-1,-1,-1],"loss_changes":[1.7086167E3,3.0201355E1,1.1799896E2,2.2649315E1,0E0,1.2715942E1,1.9274708E1,0E0,0E0,1.1922331E2,5.3291626E0,0E0,2.7066314E0,2.0439148E-1,7.509384E-1,3.305664E0,1.1742854E0,0E0,0E0,0E0,0E0,7.349014E-2,0E0,0E0,8.785219E1,0E0,0E0,0E0,0E0,0E0,0E0],"parents":[2147483647,0,0,1,1,2,2,3,3,5,5,6,6,9,9,10,10,12,12,13,13,14,14,15,15,16,16,21,21,24,24],"right_children":[2,4,6,8,-1,10,12,-1,-1,14,16,-1,18,20,22,24,26,-1,-1,-1,-1,28,-1,-1,30,-1,-1,-1,-1,-1,-1],"split_conditions":[1.1889649E-1,6.7764474E-3,1.2707521E0,1.1573689E-1,1.05547E-1,4.7003314E-1,1.980213E0,9.642184E-2,-9.823899E-2,2.2425038E-1,3.5682843E0,1.0697241E-1,2.9237708E-1,2.5161097E0,3.5501938E0,5.98001E-1,2.771994E0,-9.289574E-2,4.8191674E-2,-1.0252291E-1,-2.4357578E-2,3.0495603E0,2.1436159E-2,-1.0532174E-1,1.0438255E0,-2.9531905E-2,7.931844E-2,1.268173E-1,3.774262E-2,1.874577E-1,-1.0433175E-1],"split_indices":[57,58,58,57,0,57,57,0,0,58,56,0,15,52,56,58,55,0,0,0,0,53,0,0,57,0,0,0,0,0,0],"split_type":[0,0,0,0,0,0,0,0,0,0,0,0,0,0,0,0,0,0,0,0,0,0,0,0,0,0,0,0,0,0,0],"sum_hessian":[1.893621E3,8.758348E2,1.01778625E3,2.2213001E1,8.5362177E2,9.7665326E2,4.1132984E1,9.782707E0,1.2430293E1,1.9885252E2,7.778007E2,3.4229523E1,6.9034624E0,1.7186914E2,2.698338E1,7.7546326E2,2.3374832E0,5.8715014E0,1.0319608E0,1.7081105E2,1.0580909E0,2.5780712E1,1.2026668E0,5.857398E2,1.8972342E2,1.0276175E0,1.3098657E0,2.4642021E1,1.1386921E0,1.00451765E1,1.7967824E2],"tree_param":{"num_deleted":"0","num_feature":"59","num_nodes":"31","size_leaf_vector":"1"}},{"base_weights":[2.2962757E-3,1.0196991E0,-8.7078136E-1,-1.18460104E-1,1.0496743E-1,-9.4031924E-1,7.573331E-1,9.511063E-2,-9.7047254E-2,-7.0526385E-1,-9.996238E-1,1.0618041E-1,-6.627417E-1,-1.0112478E0,1.1808928E0,-1.0044655E0,3.5580793E-1,-9.1155164E-2,4.627974E-2,-1.04671516E-1,-8.0539656E-1,1.2196898E0,2.0352233E-2,-1.0511495E-1,-8.8177496E-1,-2.8256929E-2,7.681354E-2,1.2401624E-1,-1.01228654E-1,1.2453198E-1,3.5977982E-2,1.5041757E-1,-1.0380907E-1],"categories":[],"categories_nodes":[],"categories_segments":[],"categories_sizes":[],"default_left":[0,0,0,0,0,0,0,0,0,0,0,0,0,0,0,0,0,0,0,0,0,0,0,0,0,0,0,0,0,0,0,0,0],"id":23,"left_children":[1,3,5,7,-1,9,11,-1,-1,13,15,-1,17,19,21,23,25,-1,-1,-1,27,29,-1,-1,31,-1,-1,-1,-1,-1,-1,-1,-1],"loss_changes":[1.5344963E3,2.7342896E1,1.05968506E2,2.0398066E1,0E0,1.1730164E1,1.7408564E1,0E0,0E0,1.0687827E2,5.0164185E0,0E0,2.5045154E0,3.1126404E-1,7.38472E-1,3.1265259E0,1.0765682E0,0E0,0E0,0E0,1.2924707E1,9.915161E-2,0E0,0E0,7.662381E1,0E0,0E0,0E0,0E0,0E0,0E0,0E0,0E0],"parents":[2147483647,0,0,1,1,2,2,3,3,5,5,6,6,9,9,10,10,12,12,13,13,14,14,15,15,16,16,20,20,21,21,24,24],"right_children":[2,4,6,8,-1,10,12,-1,-1,14,16,-1,18,20,22,24,26,-1,-1,-1,28,30,-1,-1,32,-1,-1,-1,-1,-1,-1,-1,-1],"split_conditions":[1.1889649E-1,6.7764474E-3,1.2707521E0,1.1573689E-1,1.0496743E-1,4.7003314E-1,1.980213E0,9.511063E-2,-9.7047254E-2,2.2425038E-1,3.5682843E0,1.0618041E-1,2.9237708E-1,1.4950025E-1,3.5501938E0,5.232509E-1,2.771994E0,-9.1155164E-2,4.627974E-2,-1.04671516E-1,2.3862989E-1,3.0495603E0,2.0352233E-2,-1.0511495E-1,1.0438255E0,-2.8256929E-2,7.681354E-2,1.2401624E-1,-1.01228654E-1,1.2453198E-1,3.5977982E-2,1.5041757E-1,-1.0380907E-1],"split_indices":[57,58,58,57,0,57,57,0,0,58,56,0,15,58,56,58,55,0,0,0,57,53,0,0,57,0,0,0,0,0,0,0,0],"split_type":[0,0,0,0,0,0,0,0,0,0,0,0,0,0,0,0,0,0,0,0,0,0,0,0,0,0,0,0,0,0,0,0,0],"sum_hessian":[1.7255084E3,7.968113E2,9.2869714E2,2.0370995E1,7.764403E2,8.910617E2,3.763543E1,8.980764E0,1.1390231E1,1.8211897E2,7.0894275E2,3.1198591E1,6.4368396E0,1.5709752E2,2.502146E1,7.0667737E2,2.265387E0,5.4272256E0,1.0096141E0,1.3052391E2,2.65736E1,2.3827684E1,1.1937755E0,5.0641724E2,2.0026012E2,1.012501E0,1.252886E0,1.9820828E0,2.4591516E1,2.2702822E1,1.1248629E0,1.1783172E1,1.8847694E2],"tree_param":{"num_deleted":"0","num_feature":"59","num_nodes":"33","size_leaf_vector":"1"}},{"base_weights":[2.3871392E-3,1.0144064E0,-8.6367565E-1,-1.1642559E-1,1.0444621E-1,-9.3285066E-1,7.4854565E-1,9.3808286E-2,-9.586833E-2,-6.975439E-1,-9.922782E-1,1.05420664E-1,-6.42088E-1,-1.0036696E0,1.1548002E0,-9.973595E-1,3.427971E-1,-8.929456E-2,4.053677E-2,-1.0405373E-1,-7.902982E-1,1.1959316E0,1.9321417E-2,-1.0456502E-1,-8.710373E-1,-2.2577373E-2,7.3338635E-2,1.16825595E-1,-1.0035875E-1,1.22357406E-1,3.4293305E-2,1.3752936E-1,-1.0312078E-1],"categories":[],"categories_nodes":[],"categories_segments":[],"categories_sizes":[],"default_left":[0,0,0,0,0,0,0,0,0,0,0,0,0,0,0,0,0,0,0,0,0,0,0,0,0,0,0,0,0,0,0,0,0],"id":24,"left_children":[1,3,5,7,-1,9,11,-1,-1,13,15,-1,17,19,21,23,25,-1,-1,-1,27,29,-1,-1,31,-1,-1,-1,-1,-1,-1,-1,-1],"loss_changes":[1.3790614E3,2.4782043E1,9.525537E1,1.8382751E1,0E0,1.0682434E1,1.5739674E1,0E0,0E0,9.606992E1,4.7313843E0,0E0,2.2031255E0,3.117981E-1,7.262039E-1,3.022766E0,8.7567675E-1,0E0,0E0,0E0,1.1782659E1,1.2312698E-1,0E0,0E0,6.773746E1,0E0,0E0,0E0,0E0,0E0,0E0,0E0,0E0],"parents":[2147483647,0,0,1,1,2,2,3,3,5,5,6,6,9,9,10,10,12,12,13,13,14,14,15,15,16,16,20,20,21,21,24,24],"right_children":[2,4,6,8,-1,10,12,-1,-1,14,16,-1,18,20,22,24,26,-1,-1,-1,28,30,-1,-1,32,-1,-1,-1,-1,-1,-1,-1,-1],"split_conditions":[1.1889649E-1,6.7764474E-3,1.2707521E0,1.1573689E-1,1.0444621E-1,4.7003314E-1,1.980213E0,9.3808286E-2,-9.586833E-2,2.2425038E-1,3.5682843E0,1.05420664E-1,2.844188E-1,1.4950025E-1,3.5501938E0,5.232509E-1,3.1143022E0,-8.929456E-2,4.053677E-2,-1.0405373E-1,2.3862989E-1,3.0495603E0,1.9321417E-2,-1.0456502E-1,1.0438255E0,-2.2577373E-2,7.3338635E-2,1.16825595E-1,-1.0035875E-1,1.22357406E-1,3.4293305E-2,1.3752936E-1,-1.0312078E-1],"split_indices":[57,58,58,57,0,57,57,0,0,58,56,0,15,58,56,58,55,0,0,0,57,53,0,0,57,0,0,0,0,0,0,0,0],"split_type":[0,0,0,0,0,0,0,0,0,0,0,0,0,0,0,0,0,0,0,0,0,0,0,0,0,0,0,0,0,0,0,0,0],"sum_hessian":[1.571423E3,7.245703E2,8.468526E2,1.8684828E1,7.058855E2,8.1241595E2,3.4436634E1,8.246464E0,1.0438363E1,1.663765E2,6.460394E2,2.8429714E1,6.0069203E0,1.4317328E2,2.3203222E1,6.438419E2,2.1975179E0,4.965283E0,1.0416374E0,1.1877411E2,2.4399168E1,2.2017715E1,1.185506E0,4.6051733E2,1.8332462E2,1.0667064E0,1.1308113E0,1.9564548E0,2.2442713E1,2.09058E1,1.1119163E0,1.1696677E1,1.7162793E2],"tree_param":{"num_deleted":"0","num_feature":"59","num_nodes":"33","size_leaf_vector":"1"}},{"base_weights":[2.476784E-3,1.009595E0,-8.5686713E-1,-1.1437296E-1,1.0397644E-1,-9.2572653E-1,7.3944044E-1,9.250714E-2,-9.4693825E-2,-6.9005305E-1,-9.853029E-1,1.046828E-1,-6.2154084E-1,-9.965606E-1,1.1292102E0,-9.9066436E-1,3.3063313E-1,-8.7594554E-2,3.879006E-2,-1.03485E-1,-7.755457E-1,1.1977117E0,3.425422E-1,-1.0406822E-1,-8.6047757E-1,-2.1516979E-2,7.105969E-2,1.105478E-1,-9.9510305E-2,1.23007335E-1,3.0389378E-2,-3.1101468E-3,5.5401396E-2,1.2607515E-1,-1.0247248E-1],"categories":[],"categories_nodes":[],"categories_segments":[],"categories_sizes":[],"default_left":[0,0,0,0,0,0,0,0,0,0,0,0,0,0,0,0,0,0,0,0,0,0,0,0,0,0,0,0,0,0,0,0,0,0,0],"id":25,"left_children":[1,3,5,7,-1,9,11,-1,-1,13,15,-1,17,19,21,23,25,-1,-1,-1,27,29,31,-1,33,-1,-1,-1,-1,-1,-1,-1,-1,-1,-1],"loss_changes":[1.2398768E3,2.2485413E1,8.5656006E1,1.6576893E1,0E0,9.73114E0,1.4256477E1,0E0,0E0,8.641834E1,4.4869995E0,0E0,2.0397325E0,3.0970764E-1,8.0347633E-1,2.9295044E0,8.044946E-1,0E0,0E0,0E0,1.0763668E1,2.1391678E-1,2.7045426E-1,0E0,6.0107872E1,0E0,0E0,0E0,0E0,0E0,0E0,0E0,0E0,0E0,0E0],"parents":[2147483647,0,0,1,1,2,2,3,3,5,5,6,6,9,9,10,10,12,12,13,13,14,14,15,15,16,16,20,20,21,21,22,22,24,24],"right_children":[2,4,6,8,-1,10,12,-1,-1,14,16,-1,18,20,22,24,26,-1,-1,-1,28,30,32,-1,34,-1,-1,-1,-1,-1,-1,-1,-1,-1,-1],"split_conditions":[1.1889649E-1,6.7764474E-3,1.2707521E0,1.1573689E-1,1.0397644E-1,4.7003314E-1,1.980213E0,9.250714E-2,-9.4693825E-2,2.2425038E-1,3.5682843E0,1.046828E-1,2.844188E-1,1.4950025E-1,1.2765672E-2,5.232509E-1,3.1143022E0,-8.7594554E-2,3.879006E-2,-1.03485E-1,2.3862989E-1,3.0495603E0,3.816893E-1,-1.0406822E-1,1.0438255E0,-2.1516979E-2,7.105969E-2,1.105478E-1,-9.9510305E-2,1.23007335E-1,3.0389378E-2,-3.1101468E-3,5.5401396E-2,1.2607515E-1,-1.0247248E-1],"split_indices":[57,58,58,57,0,57,57,0,0,58,56,0,15,58,37,58,55,0,0,0,57,53,58,0,57,0,0,0,0,0,0,0,0,0,0],"split_type":[0,0,0,0,0,0,0,0,0,0,0,0,0,0,0,0,0,0,0,0,0,0,0,0,0,0,0,0,0,0,0,0,0,0,0],"sum_hessian":[1.4306206E3,6.585962E2,7.720245E2,1.714284E1,6.4145337E2,7.405018E2,3.1522697E1,7.5747614E0,9.568078E0,1.5195961E2,5.885422E2,2.5903116E1,5.619581E0,1.304361E2,2.1523516E1,5.864002E2,2.1419566E0,4.5940194E0,1.0255617E0,1.0803712E2,2.2398977E1,1.9318766E1,2.2047505E0,4.185857E2,1.6781448E2,1.0571344E0,1.084822E0,1.9194397E0,2.0479538E1,1.8280691E1,1.0380747E0,1.1051028E0,1.0996478E0,1.158032E1,1.5623416E2],"tree_param":{"num_deleted":"0","num_feature":"59","num_nodes":"35","size_leaf_vector":"1"}},{"base_weights":[2.59545E-3,1.0052048E0,-8.502443E-1,-1.1229311E-1,1.03552125E-1,-9.188262E-1,7.3022115E-1,9.120066E-2,-9.35164E-2,-6.8247855E-1,-9.7862726E-1,1.0395741E-1,-6.0133386E-1,-9.898443E-1,1.1057109E0,-9.842929E-1,3.1912512E-1,3.7207704E-2,-8.5914396E-2,-1.029582E-1,-7.610447E-1,1.1767812E0,3.30517E-1,-1.0311202E0,-8.3560157E-1,-2.0504126E-2,6.887566E-2,1.050052E-1,-9.867524E-2,1.2118002E-1,2.8975988E-2,-2.9463966E-3,5.3936124E-2,-1.03468016E-1,-5.139011E-2,1.5135638E-1,-1.01544045E-1],"categories":[],"categories_nodes":[],"categories_segments":[],"categories_sizes":[],"default_left":[0,0,0,0,0,0,0,0,0,0,0,0,0,0,0,0,0,0,0,0,0,0,0,0,0,0,0,0,0,0,0,0,0,0,0,0,0],"id":26,"left_children":[1,3,5,7,-1,9,11,-1,-1,13,15,-1,17,19,21,23,25,-1,-1,-1,27,29,31,33,35,-1,-1,-1,-1,-1,-1,-1,-1,-1,-1,-1,-1],"loss_changes":[1.1150734E3,2.0423279E1,7.705148E1,1.4957292E1,0E0,8.88385E0,1.2926606E1,0E0,0E0,7.791617E1,4.2626953E0,0E0,1.891552E0,3.0562592E-1,7.665329E-1,2.8632202E0,7.398182E-1,0E0,0E0,0E0,9.849983E0,2.3350906E-1,2.528524E-1,2.0953369E-1,5.789279E1,0E0,0E0,0E0,0E0,0E0,0E0,0E0,0E0,0E0,0E0,0E0,0E0],"parents":[2147483647,0,0,1,1,2,2,3,3,5,5,6,6,9,9,10,10,12,12,13,13,14,14,15,15,16,16,20,20,21,21,22,22,23,23,24,24],"right_children":[2,4,6,8,-1,10,12,-1,-1,14,16,-1,18,20,22,24,26,-1,-1,-1,28,30,32,34,36,-1,-1,-1,-1,-1,-1,-1,-1,-1,-1,-1,-1],"split_conditions":[1.1889649E-1,6.7764474E-3,1.2707521E0,1.1573689E-1,1.03552125E-1,4.7003314E-1,1.980213E0,9.120066E-2,-9.35164E-2,2.2425038E-1,3.5682843E0,1.0395741E-1,1.9890498E0,1.4950025E-1,1.2765672E-2,5.98001E-1,3.1143022E0,3.7207704E-2,-8.5914396E-2,-1.029582E-1,2.3862989E-1,3.0495603E0,3.816893E-1,4.1756024E0,1.0438255E0,-2.0504126E-2,6.887566E-2,1.050052E-1,-9.867524E-2,1.2118002E-1,2.8975988E-2,-2.9463966E-3,5.3936124E-2,-1.03468016E-1,-5.139011E-2,1.5135638E-1,-1.01544045E-1],"split_indices":[57,58,58,57,0,57,57,0,0,58,56,0,12,58,37,58,55,0,0,0,57,53,58,8,57,0,0,0,0,0,0,0,0,0,0,0,0],"split_type":[0,0,0,0,0,0,0,0,0,0,0,0,0,0,0,0,0,0,0,0,0,0,0,0,0,0,0,0,0,0,0,0,0,0,0,0,0],"sum_hessian":[1.3020806E3,5.98407E2,7.036736E2,1.5733869E1,5.826731E2,6.748099E2,2.8863724E1,6.960812E0,8.773057E0,1.3877026E2,5.360396E2,2.3600117E1,5.263607E0,1.187971E2,1.9973173E1,5.339501E2,2.0895464E0,1.0093589E0,4.254248E0,9.823568E1,2.0561417E1,1.782126E1,2.1519127E0,4.0155438E2,1.3239568E2,1.0482824E0,1.0412642E0,1.8737813E0,1.8687635E1,1.679217E1,1.0290903E0,1.1054273E0,1.0464855E0,3.978157E2,3.738661E0,8.887359E0,1.2350831E2],"tree_param":{"num_deleted":"0","num_feature":"59","num_nodes":"37","size_leaf_vector":"1"}},{"base_weights":[2.7295821E-3,1.0011818E0,-8.44057E-1,-1.101803E-1,1.0316793E-1,-9.12434E-1,7.208258E-1,8.9883365E-2,-9.232974E-2,-6.749933E-1,-9.7259235E-1,1.0323576E-1,-5.8146894E-1,-9.8345244E-1,1.0825775E0,-9.785924E-1,3.0823684E-1,-8.4091015E-2,3.3061665E-2,-1.02467E-1,-7.4671257E-1,3.7741235E-1,1.17436066E-1,-1.03212E-1,-8.4032124E-1,-1.9537011E-2,6.678186E-2,1.0006195E-1,-9.78462E-2,6.565214E-2,-1.4488893E-2,1.121604E-1,-1.01266004E-1],"categories":[],"categories_nodes":[],"categories_segments":[],"categories_sizes":[],"default_left":[0,0,0,0,0,0,0,0,0,0,0,0,0,0,0,0,0,0,0,0,0,0,0,0,0,0,0,0,0,0,0,0,0],"id":27,"left_children":[1,3,5,7,-1,9,11,-1,-1,13,15,-1,17,19,21,23,25,-1,-1,-1,27,29,-1,-1,31,-1,-1,-1,-1,-1,-1,-1,-1],"loss_changes":[1.00324896E3,1.8570007E1,6.936066E1,1.3503596E1,0E0,8.137207E0,1.1732534E1,0E0,0E0,7.030423E1,4.05896E0,0E0,1.682796E0,3.00148E-1,8.217144E-1,2.7362366E0,6.8099695E-1,0E0,0E0,0E0,9.02739E0,6.380651E-1,0E0,0E0,4.8897995E1,0E0,0E0,0E0,0E0,0E0,0E0,0E0,0E0],"parents":[2147483647,0,0,1,1,2,2,3,3,5,5,6,6,9,9,10,10,12,12,13,13,14,14,15,15,16,16,20,20,21,21,24,24],"right_children":[2,4,6,8,-1,10,12,-1,-1,14,16,-1,18,20,22,24,26,-1,-1,-1,28,30,-1,-1,32,-1,-1,-1,-1,-1,-1,-1,-1],"split_conditions":[1.1889649E-1,6.7764474E-3,1.2707521E0,1.1573689E-1,1.0316793E-1,4.7003314E-1,1.980213E0,8.9883365E-2,-9.232974E-2,2.2425038E-1,3.5682843E0,1.0323576E-1,2.6641324E-1,1.4950025E-1,2.281752E-1,5.232509E-1,3.1143022E0,-8.4091015E-2,3.3061665E-2,-1.02467E-1,2.3862989E-1,7.554318E-1,1.17436066E-1,-1.03212E-1,1.0438255E0,-1.9537011E-2,6.678186E-2,1.0006195E-1,-9.78462E-2,6.565214E-2,-1.4488893E-2,1.121604E-1,-1.01266004E-1],"split_indices":[57,58,58,57,0,57,57,0,0,58,56,0,15,58,58,58,55,0,0,0,57,56,0,0,57,0,0,0,0,0,0,0,0],"split_type":[0,0,0,0,0,0,0,0,0,0,0,0,0,0,0,0,0,0,0,0,0,0,0,0,0,0,0,0,0,0,0,0,0],"sum_hessian":[1.184609E3,5.4353754E2,6.410714E2,1.4447328E1,5.290902E2,6.146322E2,2.6439192E1,6.4000077E0,8.04732E0,1.26715576E2,4.8791666E2,2.1502657E1,4.9365354E0,1.0817158E2,1.8544E1,4.8587656E2,2.0400994E0,3.9040666E0,1.032469E0,8.9296394E1,1.8875183E1,2.724422E0,1.5819578E1,3.4561664E2,1.402599E2,1.0400904E0,1.0000091E0,1.8217759E0,1.7053408E1,1.6081014E0,1.1163207E0,1.0881014E1,1.2937889E2],"tree_param":{"num_deleted":"0","num_feature":"59","num_nodes":"33","size_leaf_vector":"1"}},{"base_weights":[2.8319852E-3,9.9747896E-1,-8.378841E-1,-1.0802671E-1,1.02819204E-1,-9.060774E-1,7.1094793E-1,8.855092E-2,-9.112841E-2,-1.0035965E0,-7.539595E-1,1.0250994E-1,-5.618223E-1,-7.709244E-1,-1.02249764E-1,1.1754799E-1,-9.312229E-1,-8.241395E-2,3.1560607E-2,-9.952234E-2,1.0062915E-1,6.2984705E-1,-9.507183E-1,2.1822816E-3,9.232463E-2,-9.601375E-2,4.6044376E-2],"categories":[],"categories_nodes":[],"categories_segments":[],"categories_sizes":[],"default_left":[0,0,0,0,0,0,0,0,0,0,0,0,0,0,0,0,0,0,0,0,0,0,0,0,0,0,0],"id":28,"left_children":[1,3,5,7,-1,9,11,-1,-1,13,15,-1,17,19,-1,-1,21,-1,-1,-1,-1,23,25,-1,-1,-1,-1],"loss_changes":[9.0283813E2,1.6903046E1,6.2443756E1,1.219796E1,0E0,7.563629E0,1.0666254E1,0E0,0E0,7.0147705E-1,7.740715E1,0E0,1.5586245E0,1.2767147E1,0E0,0E0,6.8349E0,0E0,0E0,0E0,0E0,5.380322E-1,3.1374054E0,0E0,0E0,0E0,0E0],"parents":[2147483647,0,0,1,1,2,2,3,3,5,5,6,6,9,9,10,10,12,12,13,13,16,16,21,21,22,22],"right_children":[2,4,6,8,-1,10,12,-1,-1,14,16,-1,18,20,-1,-1,22,-1,-1,-1,-1,24,26,-1,-1,-1,-1],"split_conditions":[1.1889649E-1,6.7764474E-3,1.2707521E0,1.1573689E-1,1.02819204E-1,2.990005E-1,1.980213E0,8.855092E-2,-9.112841E-2,2.3862989E-1,5.834449E-1,1.0250994E-1,2.6641324E-1,8.0189124E-2,-1.02249764E-1,1.1754799E-1,6.6285056E-1,-8.241395E-2,3.1560607E-2,-9.952234E-2,1.0062915E-1,9.632912E-3,3.420789E0,2.1822816E-3,9.232463E-2,-9.601375E-2,4.6044376E-2],"split_indices":[57,58,58,57,0,58,57,0,0,57,57,0,15,58,0,0,55,0,0,0,0,4,18,0,0,0,0],"split_type":[0,0,0,0,0,0,0,0,0,0,0,0,0,0,0,0,0,0,0,0,0,0,0,0,0,0,0],"sum_hessian":[1.0776718E3,4.935586E2,5.8411316E2,1.3273284E1,4.802853E2,5.5987744E2,2.423576E1,5.8880515E0,7.385232E0,3.3775388E2,2.2212355E2,1.9594051E1,4.6417084E0,2.8515417E1,3.0923846E2,1.8216227E1,2.0390732E2,3.6201549E0,1.0215534E0,2.5710548E1,2.8048682E0,2.1289206E0,2.017784E2,1.0426239E0,1.0862966E0,2.0075801E2,1.0203896E0],"tree_param":{"num_deleted":"0","num_feature":"59","num_nodes":"27","size_leaf_vector":"1"}},{"base_weights":[3.10401E-3,9.9405324E-1,-8.3006775E-1,-1.0583081E-1,1.0250174E-1,-8.9791715E-1,7.007609E-1,8.71998E-2,-8.990786E-2,-9.9863577E-1,-7.4203116E-1,1.0177262E-1,-5.425536E-1,-7.600521E-1,-1.01801075E-1,1.1569356E-1,-9.173097E-1,-8.074076E-2,3.012376E-2,-9.885105E-2,9.6963145E-2,6.0233474E-1,-9.377395E-1,2.0697499E-3,8.869906E-2,-6.473676E-2,-1.0088064E-1],"categories":[],"categories_nodes":[],"categories_segments":[],"categories_sizes":[],"default_left":[0,0,0,0,0,0,0,0,0,0,0,0,0,0,0,0,0,0,0,0,0,0,0,0,0,0,0],"id":29,"left_children":[1,3,5,7,-1,9,11,-1,-1,13,15,-1,17,19,-1,-1,21,-1,-1,-1,-1,23,25,-1,-1,-1,-1],"loss_changes":[8.1173566E2,1.5402222E1,5.6104645E1,1.1024557E1,0E0,7.2957764E0,9.706688E0,0E0,0E0,6.503601E-1,6.923058E1,0E0,1.4436058E0,1.166152E1,0E0,0E0,6.4032593E0,0E0,0E0,0E0,0E0,4.9548638E-1,3.1842499E0,0E0,0E0,0E0,0E0],"parents":[2147483647,0,0,1,1,2,2,3,3,5,5,6,6,9,9,10,10,12,12,13,13,16,16,21,21,22,22],"right_children":[2,4,6,8,-1,10,12,-1,-1,14,16,-1,18,20,-1,-1,22,-1,-1,-1,-1,24,26,-1,-1,-1,-1],"split_conditions":[1.1889649E-1,6.7764474E-3,1.2707521E0,1.1573689E-1,1.0250174E-1,2.990005E-1,1.980213E0,8.71998E-2,-8.990786E-2,2.3862989E-1,5.834449E-1,1.0177262E-1,2.6641324E-1,8.0189124E-2,-1.01801075E-1,1.1569356E-1,6.6285056E-1,-8.074076E-2,3.012376E-2,-9.885105E-2,9.6963145E-2,9.632912E-3,1.0438255E0,2.0697499E-3,8.869906E-2,-6.473676E-2,-1.0088064E-1],"split_indices":[57,58,58,57,0,58,57,0,0,57,57,0,15,58,0,0,55,0,0,0,0,4,57,0,0,0,0],"split_type":[0,0,0,0,0,0,0,0,0,0,0,0,0,0,0,0,0,0,0,0,0,0,0,0,0,0,0],"sum_hessian":[9.811708E2,4.48064E2,5.331068E2,1.2202377E1,4.358616E2,5.1087714E2,2.2229656E1,5.4208603E0,6.7815166E0,3.0707108E2,2.0380606E2,1.7858364E1,4.3712935E0,2.6085262E1,2.809858E2,1.6748829E1,1.8705724E2,3.3598151E0,1.0114784E0,2.3420378E1,2.6648846E0,2.1035576E0,1.8495367E2,1.043692E0,1.0598656E0,3.8353664E1,1.466E2],"tree_param":{"num_deleted":"0","num_feature":"59","num_nodes":"27","size_leaf_vector":"1"}},{"base_weights":[3.2537454E-3,9.908658E-1,-8.221964E-1,-1.0358793E-1,1.02211796E-1,-8.897023E-1,6.902195E-1,8.582758E-2,-8.866445E-2,-9.625088E-1,-6.633588E-1,1.0101711E-1,-5.236835E-1,-7.884947E-1,-1.0185755E0,1.0860112E0,-9.9605787E-1,-7.907038E-2,2.8748794E-2,-9.658685E-1,1.0234964E0,-1.02208614E-1,-5.4241894E-3,1.9073671E-1,1.269437E-1,-1.0059695E0,-2.4627612E-3,-1.0115742E-1,-7.0247374E-2,1.164415E-1,-2.738116E-4,8.9763924E-2,-6.575734E-2,-1.0159971E-1,-2.4531565E-3],"categories":[],"categories_nodes":[],"categories_segments":[],"categories_sizes":[],"default_left":[0,0,0,0,0,0,0,0,0,0,0,0,0,0,0,0,0,0,0,0,0,0,0,0,0,0,0,0,0,0,0,0,0,0,0],"id":30,"left_children":[1,3,5,7,-1,9,11,-1,-1,13,15,-1,17,19,21,23,25,-1,-1,27,29,-1,-1,31,-1,33,-1,-1,-1,-1,-1,-1,-1,-1,-1],"loss_changes":[7.299856E2,1.4049957E1,5.0413666E1,9.969477E0,0E0,7.063324E0,8.842173E0,0E0,0E0,2.6252441E0,6.915593E1,0E0,1.3370302E0,2.99329E1,8.3270264E-1,2.9056091E0,9.2648315E-1,0E0,0E0,2.8308868E-1,1.2346058E0,0E0,0E0,3.250563E0,0E0,9.372864E-1,0E0,0E0,0E0,0E0,0E0,0E0,0E0,0E0,0E0],"parents":[2147483647,0,0,1,1,2,2,3,3,5,5,6,6,9,9,10,10,12,12,13,13,14,14,15,15,16,16,19,19,20,20,23,23,25,25],"right_children":[2,4,6,8,-1,10,12,-1,-1,14,16,-1,18,20,22,24,26,-1,-1,28,30,-1,-1,32,-1,34,-1,-1,-1,-1,-1,-1,-1,-1,-1],"split_conditions":[1.1889649E-1,6.7764474E-3,1.2707521E0,1.1573689E-1,1.02211796E-1,5.232509E-1,1.980213E0,8.582758E-2,-8.866445E-2,4.7003314E-1,1.0438255E0,1.0101711E-1,2.6641324E-1,2.2425038E-1,3.5501938E0,5.98001E-1,2.0507421E0,-7.907038E-2,2.8748794E-2,1.4950025E-1,1.2765672E-2,-1.02208614E-1,-5.4241894E-3,8.1986433E-1,1.269437E-1,2.0091114E0,-2.4627612E-3,-1.0115742E-1,-7.0247374E-2,1.164415E-1,-2.738116E-4,8.9763924E-2,-6.575734E-2,-1.0159971E-1,-2.4531565E-3],"split_indices":[57,58,58,57,0,58,57,0,0,57,57,0,15,58,56,58,16,0,0,58,37,0,0,57,0,8,0,0,0,0,0,0,0,0,0],"split_type":[0,0,0,0,0,0,0,0,0,0,0,0,0,0,0,0,0,0,0,0,0,0,0,0,0,0,0,0,0,0,0,0,0,0,0],"sum_hessian":[8.934418E2,4.0667453E2,4.8676724E2,1.1225928E1,3.954486E2,4.663631E2,2.0404156E1,4.9946795E0,6.231249E0,3.5039987E2,1.1596322E2,1.6280811E1,4.123344E0,8.905713E1,2.6134274E2,1.8168247E1,9.7794975E1,3.121158E0,1.0021862E0,8.154203E1,7.5151005E0,2.603351E2,1.0076394E0,3.4362528E0,1.4731995E1,9.677203E1,1.022939E0,6.706417E1,1.4477857E1,6.489358E0,1.0257428E0,1.8426285E0,1.5936245E0,9.5758446E1,1.0135906E0],"tree_param":{"num_deleted":"0","num_feature":"59","num_nodes":"35","size_leaf_vector":"1"}},{"base_weights":[3.268024E-3,9.87882E-1,-8.162628E-1,-1.0129421E-1,1.0194605E-1,-8.836863E-1,6.7928845E-1,8.4432766E-2,-8.7395325E-2,-9.887913E-1,-7.224296E-1,1.0023735E-1,-5.052361E-1,-7.229931E-1,-1.0106351E-1,1.12409115E-1,-8.952904E-1,-7.719554E-2,2.5434477E-2,-9.748568E-2,9.4949804E-2,-5.2003783E-1,-9.992904E-1,-9.4583526E-2,1.4163457E-1,-1.0073122E-1,-3.1582986E-3],"categories":[],"categories_nodes":[],"categories_segments":[],"categories_sizes":[],"default_left":[0,0,0,0,0,0,0,0,0,0,0,0,0,0,0,0,0,0,0,0,0,0,0,0,0,0,0],"id":31,"left_children":[1,3,5,7,-1,9,11,-1,-1,13,15,-1,17,19,-1,-1,21,-1,-1,-1,-1,23,25,-1,-1,-1,-1],"loss_changes":[6.5733716E2,1.2830566E1,4.5430023E1,9.020382E0,0E0,6.503174E0,8.06243E0,0E0,0E0,7.503967E-1,5.5826347E1,0E0,1.1882529E0,1.05659485E1,0E0,0E0,5.6309357E0,0E0,0E0,0E0,0E0,3.1257168E1,9.1768646E-1,0E0,0E0,0E0,0E0],"parents":[2147483647,0,0,1,1,2,2,3,3,5,5,6,6,9,9,10,10,12,12,13,13,16,16,21,21,22,22],"right_children":[2,4,6,8,-1,10,12,-1,-1,14,16,-1,18,20,-1,-1,22,-1,-1,-1,-1,24,26,-1,-1,-1,-1],"split_conditions":[1.1889649E-1,6.7764474E-3,1.2707521E0,1.1573689E-1,1.0194605E-1,2.990005E-1,1.980213E0,8.4432766E-2,-8.7395325E-2,2.3862989E-1,5.834449E-1,1.0023735E-1,2.464877E-1,8.0189124E-2,-1.0106351E-1,1.12409115E-1,1.0438255E0,-7.719554E-2,2.5434477E-2,-9.748568E-2,9.4949804E-2,5.98001E-1,2.1979482E0,-9.4583526E-2,1.4163457E-1,-1.0073122E-1,-3.1582986E-3],"split_indices":[57,58,58,57,0,58,57,0,0,57,57,0,15,58,0,0,57,0,0,0,0,58,16,0,0,0,0],"split_type":[0,0,0,0,0,0,0,0,0,0,0,0,0,0,0,0,0,0,0,0,0,0,0,0,0,0,0],"sum_hessian":[8.12624E2,3.6904028E2,4.4358377E2,1.0335875E1,3.587044E2,4.2483997E2,1.8743803E1,4.606021E0,5.729853E0,2.5409343E2,1.7074654E2,1.48477745E1,3.8960288E0,2.1885601E1,2.3220782E2,1.4145001E1,1.5660153E2,2.871455E0,1.0245739E0,1.9383696E1,2.501905E0,3.5285366E1,1.2131617E2,2.9344303E1,5.941065E0,1.20278206E2,1.0379597E0],"tree_param":{"num_deleted":"0","num_feature":"59","num_nodes":"27","size_leaf_vector":"1"}},{"base_weights":[3.3836507E-3,9.8507E-1,-8.105457E-1,-9.895394E-2,1.0170146E-1,-8.779733E-1,6.676997E-1,8.3014436E-2,-8.609846E-2,-9.840824E-1,-7.154374E-1,9.942785E-2,-4.8718256E-1,-7.1166414E-1,-1.00648284E-1,1.10586286E-1,-8.879335E-1,-7.552848E-2,2.4230257E-2,-9.6801095E-2,9.163227E-2,-5.077614E-1,-9.945818E-1,-9.344881E-2,1.3479874E-1,-1.0033157E-1,-2.5828453E-3],"categories":[],"categories_nodes":[],"categories_segments":[],"categories_sizes":[],"default_left":[0,0,0,0,0,0,0,0,0,0,0,0,0,0,0,0,0,0,0,0,0,0,0,0,0,0,0],"id":32,"left_children":[1,3,5,7,-1,9,11,-1,-1,13,15,-1,17,19,-1,-1,21,-1,-1,-1,-1,23,25,-1,-1,-1,-1],"loss_changes":[5.9199335E2,1.1730286E1,4.096039E1,8.166229E0,0E0,5.9845276E0,7.3630924E0,0E0,0E0,6.993103E-1,5.0257317E1,0E0,1.1005806E0,9.6674595E0,0E0,0E0,5.3265E0,0E0,0E0,0E0,0E0,2.7829338E1,9.1561127E-1,0E0,0E0,0E0,0E0],"parents":[2147483647,0,0,1,1,2,2,3,3,5,5,6,6,9,9,10,10,12,12,13,13,16,16,21,21,22,22],"right_children":[2,4,6,8,-1,10,12,-1,-1,14,16,-1,18,20,-1,-1,22,-1,-1,-1,-1,24,26,-1,-1,-1,-1],"split_conditions":[1.1889649E-1,6.7764474E-3,1.2707521E0,1.1573689E-1,1.0170146E-1,2.990005E-1,1.980213E0,8.3014436E-2,-8.609846E-2,2.3862989E-1,5.834449E-1,9.942785E-2,2.464877E-1,8.0189124E-2,-1.00648284E-1,1.10586286E-1,1.0438255E0,-7.552848E-2,2.4230257E-2,-9.6801095E-2,9.163227E-2,5.98001E-1,2.0358152E0,-9.344881E-2,1.3479874E-1,-1.0033157E-1,-2.5828453E-3],"split_indices":[57,58,58,57,0,58,57,0,0,57,57,0,15,58,0,0,57,0,0,0,0,58,8,0,0,0,0],"split_type":[0,0,0,0,0,0,0,0,0,0,0,0,0,0,0,0,0,0,0,0,0,0,0,0,0,0,0],"sum_hessian":[7.38897E2,3.3483713E2,4.0405984E2,9.524679E0,3.2531244E2,3.868217E2,1.723814E1,4.2515883E0,5.273091E0,2.3097726E2,1.5584442E2,1.354651E1,3.6916306E0,2.0039621E1,2.1093765E2,1.3014964E1,1.4282945E2,2.6736405E0,1.0179901E0,1.7663654E1,2.3759682E0,3.25519E1,1.10277565E2,2.686969E1,5.682208E0,1.0925687E2,1.0206945E0],"tree_param":{"num_deleted":"0","num_feature":"59","num_nodes":"27","size_leaf_vector":"1"}},{"base_weights":[3.5034737E-3,9.824003E-1,-8.0475277E-1,-9.6569486E-2,1.0147531E-1,-8.722186E-1,6.556633E-1,8.157261E-2,-8.477265E-2,-9.4687307E-1,-6.40372E-1,9.8583765E-2,-4.6961418E-1,-7.537332E-1,-1.0099132E0,1.0209397E0,-9.793366E-1,-7.386637E-2,2.3080602E-2,-9.445274E-1,9.6992284E-1,-1.0140474E-1,-1.4522761E-2,2.3123291E-1,1.17761634E-1,-2.1832626E-1,-1.0055188E-1,-9.998796E-2,-6.40664E-2,4.3491807E-2,1.1181819E-1,8.7281175E-2,-5.9067853E-2,-6.4869866E-2,4.7565404E-2],"categories":[],"categories_nodes":[],"categories_segments":[],"categories_sizes":[],"default_left":[0,0,0,0,0,0,0,0,0,0,0,0,0,0,0,0,0,0,0,0,0,0,0,0,0,0,0,0,0,0,0,0,0,0,0],"id":33,"left_children":[1,3,5,7,-1,9,11,-1,-1,13,15,-1,17,19,21,23,25,-1,-1,27,29,-1,-1,31,-1,33,-1,-1,-1,-1,-1,-1,-1,-1,-1],"loss_changes":[5.3317E2,1.0736603E1,3.6939774E1,7.397236E0,0E0,5.5076904E0,6.7306266E0,0E0,0E0,2.4667358E0,5.1190376E1,0E0,1.0193037E0,2.3667118E1,5.567169E-1,1.6570225E0,1.2655792E0,0E0,0E0,4.1556168E-1,9.968662E-2,0E0,0E0,2.5329955E0,0E0,1.4304804E0,0E0,0E0,0E0,0E0,0E0,0E0,0E0,0E0,0E0],"parents":[2147483647,0,0,1,1,2,2,3,3,5,5,6,6,9,9,10,10,12,12,13,13,14,14,15,15,16,16,19,19,20,20,23,23,25,25],"right_children":[2,4,6,8,-1,10,12,-1,-1,14,16,-1,18,20,22,24,26,-1,-1,28,30,-1,-1,32,-1,34,-1,-1,-1,-1,-1,-1,-1,-1,-1],"split_conditions":[1.1889649E-1,6.7764474E-3,1.2707521E0,1.1573689E-1,1.0147531E-1,5.232509E-1,1.980213E0,8.157261E-2,-8.477265E-2,4.7003314E-1,1.0438255E0,9.8583765E-2,2.464877E-1,2.2425038E-1,3.3804798E0,5.98001E-1,1.168658E0,-7.386637E-2,2.3080602E-2,1.4950025E-1,2.281752E-1,-1.0140474E-1,-1.4522761E-2,8.1986433E-1,1.17761634E-1,1.5808256E0,-1.0055188E-1,-9.998796E-2,-6.40664E-2,4.3491807E-2,1.1181819E-1,8.7281175E-2,-5.9067853E-2,-6.4869866E-2,4.7565404E-2],"split_indices":[57,58,58,57,0,58,57,0,0,57,57,0,15,58,56,58,57,0,0,58,58,0,0,57,0,2,0,0,0,0,0,0,0,0,0],"split_type":[0,0,0,0,0,0,0,0,0,0,0,0,0,0,0,0,0,0,0,0,0,0,0,0,0,0,0,0,0,0,0,0,0,0,0],"sum_hessian":[6.718763E2,3.037647E2,3.6811154E2,8.785418E0,2.949793E2,3.5224203E2,1.586952E1,3.9283712E0,4.8570466E0,2.641136E2,8.812845E1,1.236527E1,3.5042508E0,6.818068E1,1.9593289E2,1.4593209E1,7.353524E1,2.492295E0,1.0119557E0,6.1792767E1,6.387916E0,1.9482864E2,1.1042439E0,2.8258374E0,1.1767372E1,2.7564018E0,7.077884E1,5.0333397E1,1.1459368E1,2.2396085E0,4.1483073E0,1.5522397E0,1.2735977E0,1.7415978E0,1.0148039E0],"tree_param":{"num_deleted":"0","num_feature":"59","num_nodes":"35","size_leaf_vector":"1"}},{"base_weights":[3.5572737E-3,9.798462E-1,-7.98429E-1,-9.413754E-2,1.01265125E-1,-8.658992E-1,6.431683E-1,8.0108285E-2,-8.341743E-2,-9.735333E-1,-7.010441E-1,9.770088E-2,-4.5255414E-1,-6.6737235E-1,-9.9923424E-2,1.0731999E-1,-8.7302E-1,-7.221089E-2,2.1983333E-2,-9.5353715E-2,9.013971E-2,-4.8125523E-1,-9.851339E-1,-9.13244E-2,1.2377552E-1,-9.957092E-2,-1.1355542E-3],"categories":[],"categories_nodes":[],"categories_segments":[],"categories_sizes":[],"default_left":[0,0,0,0,0,0,0,0,0,0,0,0,0,0,0,0,0,0,0,0,0,0,0,0,0,0,0],"id":34,"left_children":[1,3,5,7,-1,9,11,-1,-1,13,15,-1,17,19,-1,-1,21,-1,-1,-1,-1,23,25,-1,-1,-1,-1],"loss_changes":[4.8012024E2,9.838654E0,3.3301804E1,6.7047496E0,0E0,5.0316315E0,6.157966E0,0E0,0E0,8.4591675E-1,4.0840225E1,0E0,9.4397724E-1,8.895365E0,0E0,0E0,4.786537E0,0E0,0E0,0E0,0E0,2.2371859E1,9.378128E-1,0E0,0E0,0E0,0E0],"parents":[2147483647,0,0,1,1,2,2,3,3,5,5,6,6,9,9,10,10,12,12,13,13,16,16,21,21,22,22],"right_children":[2,4,6,8,-1,10,12,-1,-1,14,16,-1,18,20,-1,-1,22,-1,-1,-1,-1,24,26,-1,-1,-1,-1],"split_conditions":[1.1889649E-1,6.7764474E-3,1.2707521E0,1.1573689E-1,1.01265125E-1,2.990005E-1,1.980213E0,8.0108285E-2,-8.341743E-2,2.3862989E-1,5.834449E-1,9.770088E-2,2.464877E-1,8.0189124E-2,-9.9923424E-2,1.0731999E-1,1.0438255E0,-7.221089E-2,2.1983333E-2,-9.5353715E-2,9.013971E-2,5.98001E-1,2.0795994E0,-9.13244E-2,1.2377552E-1,-9.957092E-2,-1.1355542E-3],"split_indices":[57,58,58,57,0,58,57,0,0,57,57,0,15,58,0,0,57,0,0,0,0,58,16,0,0,0,0],"split_type":[0,0,0,0,0,0,0,0,0,0,0,0,0,0,0,0,0,0,0,0,0,0,0,0,0,0,0],"sum_hessian":[6.112044E2,2.7554773E2,3.3565668E2,8.111763E0,2.6743597E2,3.21031E2,1.4625673E1,3.6336527E0,4.4781103E0,1.9125505E2,1.2977596E2,1.1293237E1,3.332437E0,1.6900145E1,1.743549E2,1.1004467E1,1.1877149E2,2.3260105E0,1.0064267E0,1.4624597E1,2.2755492E0,2.7604479E1,9.1167015E1,2.2435228E1,5.169252E0,9.01653E1,1.001719E0],"tree_param":{"num_deleted":"0","num_feature":"59","num_nodes":"27","size_leaf_vector":"1"}},{"base_weights":[3.694025E-3,9.773822E-1,-7.9235715E-1,-9.1669224E-2,1.0106857E-1,-8.599296E-1,6.302111E-1,7.862261E-2,-8.203307E-2,-9.3581015E-1,-6.243015E-1,9.67756E-2,-4.3602368E-1,-7.2756684E-1,-1.0047579E0,9.822042E-1,-9.676125E-1,2.1014152E-2,-7.05782E-2,-9.2770034E-1,9.311151E-2,-1.00948885E-1,-1.2582751E-2,2.4953249E-1,1.1254708E-1,-1.5142544E-1,-9.990602E-2,-9.923186E-2,-5.9311878E-2,8.502435E-2,-5.5112805E-2,-6.057152E-2,4.831366E-2],"categories":[],"categories_nodes":[],"categories_segments":[],"categories_sizes":[],"default_left":[0,0,0,0,0,0,0,0,0,0,0,0,0,0,0,0,0,0,0,0,0,0,0,0,0,0,0,0,0,0,0,0,0],"id":35,"left_children":[1,3,5,7,-1,9,11,-1,-1,13,15,-1,17,19,21,23,25,-1,-1,27,-1,-1,-1,29,-1,31,-1,-1,-1,-1,-1,-1,-1],"loss_changes":[4.3240213E2,9.026596E0,3.0046143E1,6.080903E0,0E0,4.662277E0,5.6388516E0,0E0,0E0,2.4270477E0,4.202971E1,0E0,8.7602526E-1,2.0228697E1,5.491791E-1,1.147829E0,1.4367867E0,0E0,0E0,5.4769135E-1,0E0,0E0,0E0,2.1572618E0,0E0,1.2941449E0,0E0,0E0,0E0,0E0,0E0,0E0,0E0],"parents":[2147483647,0,0,1,1,2,2,3,3,5,5,6,6,9,9,10,10,12,12,13,13,14,14,15,15,16,16,19,19,23,23,25,25],"right_children":[2,4,6,8,-1,10,12,-1,-1,14,16,-1,18,20,22,24,26,-1,-1,28,-1,-1,-1,30,-1,32,-1,-1,-1,-1,-1,-1,-1],"split_conditions":[1.1889649E-1,6.7764474E-3,1.2707521E0,1.1573689E-1,1.0106857E-1,5.232509E-1,1.980213E0,7.862261E-2,-8.203307E-2,4.7003314E-1,1.0438255E0,9.67756E-2,2.0089688E0,2.2425038E-1,3.3804798E0,5.98001E-1,1.168658E0,2.1014152E-2,-7.05782E-2,1.4950025E-1,9.311151E-2,-1.00948885E-1,-1.2582751E-2,8.1986433E-1,1.1254708E-1,1.5483238E0,-9.990602E-2,-9.923186E-2,-5.9311878E-2,8.502435E-2,-5.5112805E-2,-6.057152E-2,4.831366E-2],"split_indices":[57,58,58,57,0,58,57,0,0,57,57,0,12,58,56,58,57,0,0,58,0,0,0,57,0,2,0,0,0,0,0,0,0],"split_type":[0,0,0,0,0,0,0,0,0,0,0,0,0,0,0,0,0,0,0,0,0,0,0,0,0,0,0,0,0,0,0,0,0],"sum_hessian":[5.5586304E2,2.4993176E2,3.0593124E2,7.4977894E0,2.4243398E2,2.9243594E2,1.3495296E1,3.364827E0,4.132962E0,2.1895363E2,7.348232E1,1.0320447E1,3.1748488E0,5.7335423E1,1.6161821E2,1.261062E1,6.0871704E1,1.0001475E0,2.1747015E0,5.155553E1,5.779895E0,1.6060518E2,1.0130233E0,2.5109975E0,1.0099622E1,2.4741192E0,5.8397587E1,4.156262E1,9.992911E0,1.3992534E0,1.1117442E0,1.4683622E0,1.0057569E0],"tree_param":{"num_deleted":"0","num_feature":"59","num_nodes":"33","size_leaf_vector":"1"}},{"base_weights":[3.655954E-3,9.7498554E-1,-7.858118E-1,-8.9163825E-2,1.0088358E-1,-8.5344875E-1,6.168098E-1,7.711785E-2,-8.062054E-2,-9.632213E-1,-6.8532664E-1,9.5805064E-2,-4.2003995E-1,-6.230172E-1,-9.923711E-2,1.0417998E-1,-8.578645E-1,-6.872107E-2,1.8788582E-2,-9.3801364E-2,8.8401705E-2,-5.1253456E-1,-9.9997126E-2,-9.189217E-2,1.180047E-1],"categories":[],"categories_nodes":[],"categories_segments":[],"categories_sizes":[],"default_left":[0,0,0,0,0,0,0,0,0,0,0,0,0,0,0,0,0,0,0,0,0,0,0,0,0],"id":36,"left_children":[1,3,5,7,-1,9,11,-1,-1,13,15,-1,17,19,-1,-1,21,-1,-1,-1,-1,23,-1,-1,-1],"loss_changes":[3.8941888E2,8.291626E0,2.710315E1,5.518789E0,0E0,4.279846E0,5.1675835E0,0E0,0E0,9.631958E-1,3.343508E1,0E0,7.836879E-1,8.079214E0,0E0,0E0,4.386566E0,0E0,0E0,0E0,0E0,2.2514954E1,0E0,0E0,0E0],"parents":[2147483647,0,0,1,1,2,2,3,3,5,5,6,6,9,9,10,10,12,12,13,13,16,16,21,21],"right_children":[2,4,6,8,-1,10,12,-1,-1,14,16,-1,18,20,-1,-1,22,-1,-1,-1,-1,24,-1,-1,-1],"split_conditions":[1.1889649E-1,6.7764474E-3,1.2707521E0,1.1573689E-1,1.0088358E-1,2.990005E-1,1.980213E0,7.711785E-2,-8.062054E-2,2.3862989E-1,5.834449E-1,9.5805064E-2,2.1062867E-1,8.0189124E-2,-9.923711E-2,1.0417998E-1,1.168658E0,-6.872107E-2,1.8788582E-2,-9.3801364E-2,8.8401705E-2,5.98001E-1,-9.9997126E-2,-9.189217E-2,1.180047E-1],"split_indices":[57,58,58,57,0,58,57,0,0,57,57,0,15,58,0,0,57,0,0,0,0,58,0,0,0],"split_type":[0,0,0,0,0,0,0,0,0,0,0,0,0,0,0,0,0,0,0,0,0,0,0,0,0],"sum_hessian":[5.058281E2,2.2668675E2,2.7914133E2,6.9381595E0,2.197486E2,2.666734E2,1.24679365E1,3.119603E0,3.8185563E0,1.5847224E2,1.0820115E2,9.437824E0,3.0301125E0,1.4272457E1,1.4419978E2,9.369829E0,9.8831314E1,2.0144048E0,1.0157077E0,1.2117305E1,2.1551516E0,3.0156195E1,6.8675125E1,2.4686161E1,5.4700336E0],"tree_param":{"num_deleted":"0","num_feature":"59","num_nodes":"25","size_leaf_vector":"1"}},{"base_weights":[3.7809114E-3,9.7263324E-1,-7.7940017E-1,-8.6630225E-2,1.0070819E-1,-8.472106E-1,6.027841E-1,7.559645E-2,-7.918145E-2,-9.2440516E-1,-6.0761344E-1,9.478714E-2,-4.0461686E-1,-7.0023185E-1,-9.9993664E-1,9.4783646E-1,-9.5510393E-1,-6.709929E-2,1.7876005E-2,-9.095516E-1,8.8462345E-2,-1.00533724E-1,-1.6264884E-2,2.6997212E-1,1.0771822E-1,-1.3226777E-1,-9.9259995E-2,-9.846283E-2,-5.4482587E-2,6.788021E-2,-2.231309E-2,-5.9108265E-2,4.787096E-2],"categories":[],"categories_nodes":[],"categories_segments":[],"categories_sizes":[],"default_left":[0,0,0,0,0,0,0,0,0,0,0,0,0,0,0,0,0,0,0,0,0,0,0,0,0,0,0,0,0,0,0,0,0],"id":37,"left_children":[1,3,5,7,-1,9,11,-1,-1,13,15,-1,17,19,21,23,25,-1,-1,27,-1,-1,-1,29,-1,31,-1,-1,-1,-1,-1,-1,-1],"loss_changes":[3.5069098E2,7.625946E0,2.4465164E1,5.0121384E0,0E0,3.9520264E0,4.741789E0,0E0,0E0,2.3925781E0,3.4624733E1,0E0,7.259298E-1,1.718253E1,4.4369507E-1,7.520342E-1,1.4573784E0,0E0,0E0,6.7118835E-1,0E0,0E0,0E0,8.046918E-1,0E0,1.2354734E0,0E0,0E0,0E0,0E0,0E0,0E0,0E0],"parents":[2147483647,0,0,1,1,2,2,3,3,5,5,6,6,9,9,10,10,12,12,13,13,14,14,15,15,16,16,19,19,23,23,25,25],"right_children":[2,4,6,8,-1,10,12,-1,-1,14,16,-1,18,20,22,24,26,-1,-1,28,-1,-1,-1,30,-1,32,-1,-1,-1,-1,-1,-1,-1],"split_conditions":[1.1889649E-1,6.7764474E-3,1.2707521E0,1.1573689E-1,1.0070819E-1,5.232509E-1,1.980213E0,7.559645E-2,-7.918145E-2,4.7003314E-1,1.0438255E0,9.478714E-2,2.1062867E-1,2.2425038E-1,3.1926754E0,5.98001E-1,1.168658E0,-6.709929E-2,1.7876005E-2,1.4950025E-1,8.8462345E-2,-1.00533724E-1,-1.6264884E-2,6.9657695E-1,1.0771822E-1,1.5621333E0,-9.9259995E-2,-9.846283E-2,-5.4482587E-2,6.788021E-2,-2.231309E-2,-5.9108265E-2,4.787096E-2],"split_indices":[57,58,58,57,0,58,57,0,0,57,57,0,15,58,56,58,57,0,0,58,0,0,0,57,0,2,0,0,0,0,0,0,0],"split_type":[0,0,0,0,0,0,0,0,0,0,0,0,0,0,0,0,0,0,0,0,0,0,0,0,0,0,0,0,0,0,0,0,0],"sum_hessian":[4.6017416E2,2.0559554E2,2.5457863E2,6.42792E0,1.9916762E2,2.4304196E2,1.1536669E1,2.8958187E0,3.5321012E0,1.8165675E2,6.1385204E1,8.637103E0,2.8995655E0,4.8369503E1,1.3328726E2,1.0893892E1,5.0491314E1,1.8875175E0,1.0120479E0,4.31028E1,5.2667055E0,1.3223364E2,1.0536181E0,2.240304E0,8.653588E0,2.397895E0,4.809342E1,3.433542E1,8.767378E0,1.0189244E0,1.2213796E0,1.3880774E0,1.0098178E0],"tree_param":{"num_deleted":"0","num_feature":"59","num_nodes":"33","size_leaf_vector":"1"}},{"base_weights":[3.7553946E-3,9.703042E-1,-7.7218086E-1,-8.407172E-2,1.0054053E-1,-8.3001703E-1,8.1748635E-1,7.4061535E-2,-7.771798E-2,-9.1785645E-1,-5.7309777E-1,1.365491E-2,8.906174E-2,-6.857129E-1,-9.973363E-1,9.3371946E-1,-9.2881614E-1,-8.9651537E-1,8.3777237E-1,-1.00333355E-1,-1.5501462E-2,2.6244715E-1,1.0559183E-1,-9.553751E-1,1.685351E-2,-9.806199E-2,-5.1445853E-2,3.7204824E-2,9.8092765E-2,6.054419E-2,-1.7766578E-2,-9.752583E-2,-1.3490412E-3],"categories":[],"categories_nodes":[],"categories_segments":[],"categories_sizes":[],"default_left":[0,0,0,0,0,0,0,0,0,0,0,0,0,0,0,0,0,0,0,0,0,0,0,0,0,0,0,0,0,0,0,0,0],"id":38,"left_children":[1,3,5,7,-1,9,11,-1,-1,13,15,-1,-1,17,19,21,23,25,27,-1,-1,29,-1,31,-1,-1,-1,-1,-1,-1,-1,-1,-1],"loss_changes":[3.1572845E2,7.0224915E0,2.2148376E1,4.5553865E0,0E0,4.57016E0,3.117051E-1,0E0,0E0,2.390396E0,3.3133247E1,0E0,0E0,1.5426947E1,4.6038055E-1,7.068567E-1,1.5949821E0,8.0093E-1,3.9834976E-2,0E0,0E0,5.873269E-1,0E0,8.8931274E-1,0E0,0E0,0E0,0E0,0E0,0E0,0E0,0E0,0E0],"parents":[2147483647,0,0,1,1,2,2,3,3,5,5,6,6,9,9,10,10,13,13,14,14,15,15,16,16,17,17,18,18,21,21,23,23],"right_children":[2,4,6,8,-1,10,12,-1,-1,14,16,-1,-1,18,20,22,24,26,28,-1,-1,30,-1,32,-1,-1,-1,-1,-1,-1,-1,-1,-1],"split_conditions":[1.1889649E-1,6.7764474E-3,1.4202523E0,1.1573689E-1,1.0054053E-1,5.232509E-1,2.893986E-1,7.4061535E-2,-7.771798E-2,4.7003314E-1,1.0438255E0,1.365491E-2,8.906174E-2,2.2425038E-1,3.1926754E0,5.98001E-1,1.3068362E0,1.4950025E-1,2.281752E-1,-1.00333355E-1,-1.5501462E-2,2.1761699E0,1.0559183E-1,1.5644642E0,1.685351E-2,-9.806199E-2,-5.1445853E-2,3.7204824E-2,9.8092765E-2,6.054419E-2,-1.7766578E-2,-9.752583E-2,-1.3490412E-3],"split_indices":[57,58,58,57,0,58,32,0,0,57,57,0,0,58,56,58,8,58,58,0,0,55,0,16,0,0,0,0,0,0,0,0,0],"split_type":[0,0,0,0,0,0,0,0,0,0,0,0,0,0,0,0,0,0,0,0,0,0,0,0,0,0,0,0,0,0,0,0,0],"sum_hessian":[4.1898334E2,1.8646358E2,2.3251976E2,5.962586E0,1.8050099E2,2.2481818E2,7.7015877E0,2.691542E0,3.2710438E0,1.6562071E2,5.919746E1,1.0249804E0,6.676607E0,4.4697235E1,1.2092348E2,1.0995562E1,4.82019E1,3.9625805E1,5.07143E0,1.198788E2,1.0446755E0,2.1781397E0,8.817422E0,4.7189175E1,1.0127264E0,3.1192514E1,8.43329E0,2.0385077E0,3.0329225E0,1.0130134E0,1.1651262E0,4.6178905E1,1.0102696E0],"tree_param":{"num_deleted":"0","num_feature":"59","num_nodes":"33","size_leaf_vector":"1"}},{"base_weights":[4.0723835E-3,9.67978E-1,-7.6369846E-1,-8.1500605E-2,1.00378886E-1,-8.3227706E-1,5.863741E-1,7.2516195E-2,-7.6232865E-2,-5.600142E-1,-9.0439475E-1,9.332638E-2,-3.817112E-1,-8.8265663E-1,8.777355E-1,-9.2061436E-1,3.0268013E-2,1.2772559E-2,-6.280435E-2,-9.764781E-2,-4.8464695E-1,9.4403714E-1,1.9098092E-2,-9.8942393E-1,-7.064792E-1,8.49412E-2,-8.788274E-2,1.0086566E-1,2.602682E-2,-9.95687E-2,-1.4773155E-2,9.528815E-2,-9.830892E-2],"categories":[],"categories_nodes":[],"categories_segments":[],"categories_sizes":[],"default_left":[0,0,0,0,0,0,0,0,0,0,0,0,0,0,0,0,0,0,0,0,0,0,0,0,0,0,0,0,0,0,0,0,0],"id":39,"left_children":[1,3,5,7,-1,9,11,-1,-1,13,15,-1,17,19,21,23,-1,-1,-1,-1,25,27,-1,29,31,-1,-1,-1,-1,-1,-1,-1,-1],"loss_changes":[2.8394916E2,6.475067E0,2.0262001E1,4.143476E0,0E0,3.4924164E0,4.0203495E0,0E0,0E0,2.1777225E1,3.3991852E0,0E0,5.304816E-1,9.261875E-1,2.2037363E-1,1.6220093E0,0E0,0E0,0E0,0E0,5.549875E0,8.084488E-2,0E0,4.6818542E-1,2.0124908E1,0E0,0E0,0E0,0E0,0E0,0E0,0E0,0E0],"parents":[2147483647,0,0,1,1,2,2,3,3,5,5,6,6,9,9,10,10,12,12,13,13,14,14,15,15,20,20,21,21,23,23,24,24],"right_children":[2,4,6,8,-1,10,12,-1,-1,14,16,-1,18,20,22,24,-1,-1,-1,-1,26,28,-1,30,32,-1,-1,-1,-1,-1,-1,-1,-1],"split_conditions":[1.1889649E-1,6.7764474E-3,1.2707521E0,1.1573689E-1,1.00378886E-1,4.7003314E-1,1.980213E0,7.2516195E-2,-7.6232865E-2,2.2425038E-1,4.1756024E0,9.332638E-2,2.174567E0,1.4950025E-1,2.114781E0,5.98001E-1,3.0268013E-2,1.2772559E-2,-6.280435E-2,-9.764781E-2,2.3862989E-1,1.9037731E0,1.9098092E-2,3.1926754E0,1.168658E0,8.49412E-2,-8.788274E-2,1.0086566E-1,2.602682E-2,-9.95687E-2,-1.4773155E-2,9.528815E-2,-9.830892E-2],"split_indices":[57,58,58,57,0,57,57,0,0,58,8,0,12,58,56,58,0,0,0,0,57,53,0,56,57,0,0,0,0,0,0,0,0],"split_type":[0,0,0,0,0,0,0,0,0,0,0,0,0,0,0,0,0,0,0,0,0,0,0,0,0,0,0,0,0,0,0,0,0],"sum_hessian":[3.8168576E2,1.6911185E2,2.1257391E2,5.5380087E0,1.6357384E2,2.0266293E2,9.910977E0,2.5049555E0,3.0330532E0,4.427578E1,1.5838716E2,7.322947E0,2.5880299E0,3.6476295E1,7.799485E0,1.5652129E2,1.8658785E0,1.0004668E0,1.5875632E0,2.8341946E1,8.134349E0,6.7711406E0,1.0283446E0,1.1571667E2,4.080461E1,1.5918915E0,6.542457E0,5.752372E0,1.0187688E0,1.1468037E2,1.0362997E0,5.4808125E0,3.53238E1],"tree_param":{"num_deleted":"0","num_feature":"59","num_nodes":"33","size_leaf_vector":"1"}},{"base_weights":[4.2657265E-3,9.656361E-1,-7.559952E-1,-7.892203E-2,1.0022163E-1,-8.116573E-1,8.6283855E-2,7.0964105E-2,-7.472921E-2,-9.0582955E-1,-5.4255974E-1,-6.595566E-1,-9.921129E-1,9.055227E-1,-9.094502E-1,-8.7543565E-1,7.608931E-1,-9.994827E-2,-1.407846E-2,1.0279901E-1,2.6600724E-1,-6.568382E-2,-9.539902E-1,-9.7217076E-2,-4.6962813E-2,3.0460104E-2,9.252003E-2,-2.488107E-2,6.727353E-2,-5.4451805E-2,4.8254028E-2,-1.4989353E-2,-9.724609E-2],"categories":[],"categories_nodes":[],"categories_segments":[],"categories_sizes":[],"default_left":[0,0,0,0,0,0,0,0,0,0,0,0,0,0,0,0,0,0,0,0,0,0,0,0,0,0,0,0,0,0,0,0,0],"id":40,"left_children":[1,3,5,7,-1,9,-1,-1,-1,11,13,15,17,19,21,23,25,-1,-1,-1,27,29,31,-1,-1,-1,-1,-1,-1,-1,-1,-1,-1],"loss_changes":[2.5552234E2,5.977997E0,1.8291496E1,3.7719142E0,0E0,4.3044205E0,0E0,0E0,0E0,2.2928238E0,2.8213367E1,1.2615669E1,4.9126434E-1,5.8199406E-1,1.5018959E0,8.8962555E-1,1.437316E-1,0E0,0E0,0E0,8.17455E-1,1.092633E0,4.4044876E-1,0E0,0E0,0E0,0E0,0E0,0E0,0E0,0E0,0E0,0E0],"parents":[2147483647,0,0,1,1,2,2,3,3,5,5,9,9,10,10,11,11,12,12,13,13,14,14,15,15,16,16,20,20,21,21,22,22],"right_children":[2,4,6,8,-1,10,-1,-1,-1,12,14,16,18,20,22,24,26,-1,-1,-1,28,30,32,-1,-1,-1,-1,-1,-1,-1,-1,-1,-1],"split_conditions":[1.1889649E-1,6.7764474E-3,1.4950025E0,1.1573689E-1,1.0022163E-1,5.232509E-1,8.6283855E-2,7.0964105E-2,-7.472921E-2,4.7003314E-1,1.0438255E0,2.2425038E-1,3.1926754E0,9.309905E-1,1.168658E0,1.4950025E-1,2.281752E-1,-9.994827E-2,-1.407846E-2,1.0279901E-1,6.864005E-1,1.5157727E0,1.9138092E-1,-9.7217076E-2,-4.6962813E-2,3.0460104E-2,9.252003E-2,-2.488107E-2,6.727353E-2,-5.4451805E-2,4.8254028E-2,-1.4989353E-2,-9.724609E-2],"split_indices":[57,58,58,57,0,58,0,0,0,57,57,58,56,57,57,58,58,0,0,0,58,2,54,0,0,0,0,0,0,0,0,0,0],"split_type":[0,0,0,0,0,0,0,0,0,0,0,0,0,0,0,0,0,0,0,0,0,0,0,0,0,0,0,0,0,0,0,0,0],"sum_hessian":[3.4760443E2,1.5338051E2,1.942239E2,5.1504464E0,1.4823007E2,1.8824974E2,5.9741745E0,2.334447E0,2.8159995E0,1.3769604E2,5.055369E1,3.7968662E1,9.972739E1,9.922482E0,4.063121E1,3.3292572E1,4.676091E0,9.869894E1,1.0284485E0,7.8178988E0,2.1045825E0,2.16135E0,3.846986E1,2.5757042E1,7.535529E0,1.993595E0,2.682496E0,1.1002272E0,1.0043552E0,1.1572958E0,1.0040543E0,1.0685151E0,3.7401344E1],"tree_param":{"num_deleted":"0","num_feature":"59","num_nodes":"33","size_leaf_vector":"1"}},{"base_weights":[4.4729616E-3,9.632592E-1,-7.4722177E-1,-7.63464E-2,1.00067176E-1,-8.165445E-1,5.719956E-1,6.9408886E-2,-7.32105E-2,-5.358659E-1,-8.9234185E-1,9.155931E-2,-3.515695E-1,-8.6032313E-1,8.203099E-1,-9.107208E-1,3.041533E-2,7.646425E-3,-5.746148E-2,-9.676667E-2,-4.409588E-1,2.8494475E-2,9.502474E-2,-9.8295254E-1,-6.8676585E-1,8.350666E-2,-8.6133026E-2,-9.906201E-2,-1.3415935E-2,8.843366E-2,-9.756067E-2],"categories":[],"categories_nodes":[],"categories_segments":[],"categories_sizes":[],"default_left":[0,0,0,0,0,0,0,0,0,0,0,0,0,0,0,0,0,0,0,0,0,0,0,0,0,0,0,0,0,0,0],"id":41,"left_children":[1,3,5,7,-1,9,11,-1,-1,13,15,-1,17,19,21,23,-1,-1,-1,-1,25,-1,-1,27,29,-1,-1,-1,-1,-1,-1],"loss_changes":[2.297975E2,5.526245E0,1.681208E1,3.436635E0,0E0,3.143158E0,3.3400824E0,0E0,0E0,1.7733011E1,3.191162E0,0E0,3.5913706E-1,1.0009384E0,2.8452778E-1,1.4403076E0,0E0,0E0,0E0,0E0,5.1717176E0,0E0,0E0,4.9552155E-1,1.6840551E1,0E0,0E0,0E0,0E0,0E0,0E0],"parents":[2147483647,0,0,1,1,2,2,3,3,5,5,6,6,9,9,10,10,12,12,13,13,14,14,15,15,20,20,23,23,24,24],"right_children":[2,4,6,8,-1,10,12,-1,-1,14,16,-1,18,20,22,24,-1,-1,-1,-1,26,-1,-1,28,30,-1,-1,-1,-1,-1,-1],"split_conditions":[1.1889649E-1,6.7764474E-3,1.2707521E0,1.1573689E-1,1.00067176E-1,4.7003314E-1,1.980213E0,6.9408886E-2,-7.32105E-2,2.2425038E-1,4.1756024E0,9.155931E-2,2.208667E0,1.4950025E-1,2.281752E-1,5.98001E-1,3.041533E-2,7.646425E-3,-5.746148E-2,-9.676667E-2,2.3862989E-1,2.8494475E-2,9.502474E-2,3.1926754E0,1.168658E0,8.350666E-2,-8.6133026E-2,-9.906201E-2,-1.3415935E-2,8.843366E-2,-9.756067E-2],"split_indices":[57,58,58,57,0,57,57,0,0,58,8,0,12,58,58,58,0,0,0,0,57,0,0,56,57,0,0,0,0,0,0],"split_type":[0,0,0,0,0,0,0,0,0,0,0,0,0,0,0,0,0,0,0,0,0,0,0,0,0,0,0,0,0,0,0],"sum_hessian":[3.1684805E2,1.3911961E2,1.7772845E2,4.796468E0,1.3432315E2,1.6921739E2,8.511057E0,2.178522E0,2.6179457E0,3.7696514E1,1.3152087E2,6.2095323E0,2.3015246E0,3.0713995E1,6.98252E0,1.2976643E2,1.7544532E0,1.0135871E0,1.2879375E0,2.341345E1,7.300544E0,1.9873266E0,4.9951935E0,9.5557434E1,3.4208996E1,1.5646367E0,5.735907E0,9.453635E1,1.0210837E0,4.9923334E0,2.9216663E1],"tree_param":{"num_deleted":"0","num_feature":"59","num_nodes":"31","size_leaf_vector":"1"}},{"base_weights":[4.6277298E-3,9.6082777E-1,-7.3902524E-1,-7.377459E-2,9.991395E-2,-8.150988E-1,4.5114708E-1,6.7854725E-2,-7.168051E-2,-4.3525106E-1,-8.7240565E-1,9.2032425E-2,-4.86981E-1,-9.472223E-2,8.99416E-2,-8.893047E-1,1.05858386E-1,-6.9286816E-2,7.98645E-3,-9.0351164E-1,2.0455942E-3,-5.3955924E-2,7.404143E-2,-9.959506E-2,-7.7404946E-2],"categories":[],"categories_nodes":[],"categories_segments":[],"categories_sizes":[],"default_left":[0,0,0,0,0,0,0,0,0,0,0,0,0,0,0,0,0,0,0,0,0,0,0,0,0],"id":42,"left_children":[1,3,5,7,-1,9,11,-1,-1,13,15,-1,17,-1,-1,19,21,-1,-1,23,-1,-1,-1,-1,-1],"loss_changes":[2.0674034E2,5.115242E0,1.5175743E1,3.1340365E0,0E0,2.9743118E0,5.056326E0,0E0,0E0,1.6017525E1,2.2910004E0,0E0,5.390089E-1,0E0,0E0,1.7082367E0,1.6896768E0,0E0,0E0,7.698746E-1,0E0,0E0,0E0,0E0,0E0],"parents":[2147483647,0,0,1,1,2,2,3,3,5,5,6,6,9,9,10,10,12,12,15,15,16,16,19,19],"right_children":[2,4,6,8,-1,10,12,-1,-1,14,16,-1,18,-1,-1,20,22,-1,-1,24,-1,-1,-1,-1,-1],"split_conditions":[1.1889649E-1,6.7764474E-3,1.196002E0,1.1573689E-1,9.991395E-2,3.560155E-1,1.980213E0,6.7854725E-2,-7.168051E-2,1.4950025E-1,4.1756024E0,9.2032425E-2,1.8606284E-1,-9.472223E-2,8.99416E-2,4.237347E0,3.1037256E-1,-6.9286816E-2,7.98645E-3,2.990005E-1,2.0455942E-3,-5.3955924E-2,7.404143E-2,-9.959506E-2,-7.7404946E-2],"split_indices":[57,58,58,57,0,57,57,0,0,58,8,0,15,0,0,16,58,0,0,58,0,0,0,0,0],"split_type":[0,0,0,0,0,0,0,0,0,0,0,0,0,0,0,0,0,0,0,0,0,0,0,0,0],"sum_hessian":[2.8874234E2,1.2619145E2,1.6255089E2,4.472999E0,1.2171845E2,1.5308136E2,9.469531E0,2.0358715E0,2.4371276E0,2.119425E1,1.318871E2,6.325165E0,3.1443667E0,1.552806E1,5.666189E0,1.297369E2,2.1502092E0,2.1434934E0,1.0008733E0,1.2774882E2,1.9880751E0,1.1401991E0,1.0100101E0,7.062674E1,5.7122078E1],"tree_param":{"num_deleted":"0","num_feature":"59","num_nodes":"25","size_leaf_vector":"1"}},{"base_weights":[4.6911617E-3,9.5832425E-1,-7.244057E-1,-7.122238E-2,9.976047E-2,-7.932378E-1,5.413301E-1,6.630503E-2,-7.014318E-2,-9.243152E-1,-5.9875804E-1,8.8973716E-2,-3.2236865E-1,-4.4154817E-1,-9.698955E-2,9.6172996E-2,-7.859423E-1,7.356513E-3,-5.424887E-2,-8.6887196E-2,8.103325E-2,-3.6694667E-1,-9.801064E-2,-7.542835E-2,1.3632631E-1],"categories":[],"categories_nodes":[],"categories_segments":[],"categories_sizes":[],"default_left":[0,0,0,0,0,0,0,0,0,0,0,0,0,0,0,0,0,0,0,0,0,0,0,0,0],"id":43,"left_children":[1,3,5,7,-1,9,11,-1,-1,13,15,-1,17,19,-1,-1,21,-1,-1,-1,-1,23,-1,-1,-1],"loss_changes":[1.8530647E2,4.740967E0,1.3588783E1,2.8607974E0,0E0,3.108696E0,2.809918E0,0E0,0E0,1.4196625E0,1.8480333E1,0E0,3.139274E-1,5.561786E0,0E0,0E0,4.092926E0,0E0,0E0,0E0,0E0,1.3714432E1,0E0,0E0,0E0],"parents":[2147483647,0,0,1,1,2,2,3,3,5,5,6,6,9,9,10,10,12,12,13,13,16,16,21,21],"right_children":[2,4,6,8,-1,10,12,-1,-1,14,16,-1,18,20,-1,-1,22,-1,-1,-1,-1,24,-1,-1,-1],"split_conditions":[1.1889649E-1,6.7764474E-3,1.2707521E0,1.1573689E-1,9.976047E-2,2.990005E-1,1.980213E0,6.630503E-2,-7.014318E-2,2.3862989E-1,5.834449E-1,8.8973716E-2,2.208667E0,8.0189124E-2,-9.698955E-2,9.6172996E-2,1.168658E0,7.356513E-3,-5.424887E-2,-8.6887196E-2,8.103325E-2,6.727511E-1,-9.801064E-2,-7.542835E-2,1.3632631E-1],"split_indices":[57,58,58,57,0,58,57,0,0,57,57,0,12,58,0,0,57,0,0,0,0,58,0,0,0],"split_type":[0,0,0,0,0,0,0,0,0,0,0,0,0,0,0,0,0,0,0,0,0,0,0,0,0],"sum_hessian":[2.64518E2,1.1447471E2,1.500433E2,4.177172E0,1.1029754E2,1.4265866E2,7.384637E0,1.9052299E0,2.271942E0,8.2978935E1,5.967973E1,5.2405186E0,2.144118E0,8.080541E0,7.48984E1,5.948804E0,5.3730927E1,1.0040003E0,1.1401178E0,6.252295E0,1.8282456E0,1.792963E1,3.5801296E1,1.5110859E1,2.8187714E0],"tree_param":{"num_deleted":"0","num_feature":"59","num_nodes":"25","size_leaf_vector":"1"}},{"base_weights":[5.1206127E-3,9.5573044E-1,-7.152969E-1,-6.869176E-2,9.9605255E-2,-8.1726426E-1,1.5330034E-1,6.476382E-2,-6.860252E-2,-5.1666284E-1,-9.031086E-1,1.0556086E-1,-7.4190134E-1,-8.3712006E-1,7.834346E-1,-9.1859275E-1,2.751252E-2,-8.689677E-2,1.9135457E-3,-9.528151E-2,-3.9595708E-1,3.0649766E-2,9.065614E-2,-9.296209E-1,2.0672863E-3,7.444492E-2,-8.2264E-2,-9.393252E-2,-2.1775689E-3],"categories":[],"categories_nodes":[],"categories_segments":[],"categories_sizes":[],"default_left":[0,0,0,0,0,0,0,0,0,0,0,0,0,0,0,0,0,0,0,0,0,0,0,0,0,0,0,0,0],"id":44,"left_children":[1,3,5,7,-1,9,11,-1,-1,13,15,-1,17,19,21,23,-1,-1,-1,-1,25,-1,-1,27,-1,-1,-1,-1,-1],"loss_changes":[1.665686E2,4.399742E0,1.2380409E1,2.6139977E0,0E0,2.7329407E0,1.320555E1,0E0,0E0,1.310452E1,1.9879074E0,0E0,8.199506E-1,8.709011E-1,9.945011E-2,9.940109E-1,0E0,0E0,0E0,0E0,3.9172735E0,0E0,0E0,7.9920197E-1,0E0,0E0,0E0,0E0,0E0],"parents":[2147483647,0,0,1,1,2,2,3,3,5,5,6,6,9,9,10,10,12,12,13,13,14,14,15,15,20,20,23,23],"right_children":[2,4,6,8,-1,10,12,-1,-1,14,16,-1,18,20,22,24,-1,-1,-1,-1,26,-1,-1,28,-1,-1,-1,-1,-1],"split_conditions":[1.1889649E-1,6.7764474E-3,9.7175163E-1,1.1573689E-1,9.9605255E-2,4.7003314E-1,1.8567933E0,6.476382E-2,-6.860252E-2,2.2425038E-1,5.870521E0,1.0556086E-1,1.3559514E0,1.4950025E-1,2.281752E-1,3.1926754E0,2.751252E-2,-8.689677E-2,1.9135457E-3,-9.528151E-2,2.3862989E-1,3.0649766E-2,9.065614E-2,6.3879356E0,2.0672863E-3,7.444492E-2,-8.2264E-2,-9.393252E-2,-2.1775689E-3],"split_indices":[57,58,58,57,0,57,57,0,0,58,13,0,58,58,58,56,0,0,0,0,57,0,0,50,0,0,0,0,0],"split_type":[0,0,0,0,0,0,0,0,0,0,0,0,0,0,0,0,0,0,0,0,0,0,0,0,0,0,0,0,0],"sum_hessian":[2.4122585E2,1.0385708E2,1.3736877E2,3.906447E0,9.995063E1,1.2298972E2,1.43790455E1,1.7855145E0,2.1209326E0,2.8879805E1,9.410992E1,7.0718603E0,7.3071856E0,2.3454647E1,5.4251566E0,9.310669E1,1.0032283E0,6.140173E0,1.167013E0,1.7662796E1,5.791852E0,1.8291494E0,3.5960073E0,9.203634E1,1.0703535E0,1.3742152E0,4.417637E0,9.1028625E1,1.0077085E0],"tree_param":{"num_deleted":"0","num_feature":"59","num_nodes":"29","size_leaf_vector":"1"}},{"base_weights":[5.501898E-3,9.530282E-1,-7.0319575E-1,-6.619564E-2,9.944684E-2,-8.042043E-1,1.5015899E-1,6.323439E-2,-6.706258E-2,-5.0480294E-1,-8.8971335E-1,1.0386018E-1,-7.2430944E-1,-8.285386E-1,7.5549704E-1,2.073997E-2,-9.075304E-1,-8.5756265E-2,1.8103587E-3,-9.47228E-2,-3.818009E-1,2.8724713E-2,8.858414E-2,-9.194276E-1,1.9599076E-3,7.195048E-2,-8.094833E-2,-9.2992924E-2,-2.7966383E-3],"categories":[],"categories_nodes":[],"categories_segments":[],"categories_sizes":[],"default_left":[0,0,0,0,0,0,0,0,0,0,0,0,0,0,0,0,0,0,0,0,0,0,0,0,0,0,0,0,0],"id":45,"left_children":[1,3,5,7,-1,9,11,-1,-1,13,15,-1,17,19,21,-1,23,-1,-1,-1,25,-1,-1,27,-1,-1,-1,-1,-1],"loss_changes":[1.4945963E2,4.0883026E0,1.1096825E1,2.3909576E0,0E0,2.4699173E0,1.1877673E1,0E0,0E0,1.1903611E1,1.8962173E0,0E0,7.8775215E-1,8.297148E-1,1.2225461E-1,0E0,9.6845245E-1,0E0,0E0,0E0,3.592977E0,0E0,0E0,7.706528E-1,0E0,0E0,0E0,0E0,0E0],"parents":[2147483647,0,0,1,1,2,2,3,3,5,5,6,6,9,9,10,10,12,12,13,13,14,14,16,16,20,20,23,23],"right_children":[2,4,6,8,-1,10,12,-1,-1,14,16,-1,18,20,22,-1,24,-1,-1,-1,26,-1,-1,28,-1,-1,-1,-1,-1],"split_conditions":[1.1889649E-1,6.7764474E-3,9.7175163E-1,1.1573689E-1,9.944684E-2,4.7003314E-1,1.8567933E0,6.323439E-2,-6.706258E-2,2.2425038E-1,5.2065736E-1,1.0386018E-1,1.3559514E0,1.4950025E-1,2.281752E-1,2.073997E-2,3.1926754E0,-8.5756265E-2,1.8103587E-3,-9.47228E-2,2.3862989E-1,2.8724713E-2,8.858414E-2,6.3879356E0,1.9599076E-3,7.195048E-2,-8.094833E-2,-9.2992924E-2,-2.7966383E-3],"split_indices":[57,58,58,57,0,57,57,0,0,58,55,0,58,58,58,0,56,0,0,0,57,0,0,50,0,0,0,0,0],"split_type":[0,0,0,0,0,0,0,0,0,0,0,0,0,0,0,0,0,0,0,0,0,0,0,0,0,0,0,0,0],"sum_hessian":[2.2057455E2,9.423625E1,1.263383E2,3.6584704E0,9.057778E1,1.1301833E2,1.3319974E1,1.6756921E0,1.9827783E0,2.6641027E1,8.6377304E1,6.514091E0,6.8058834E0,2.1468864E1,5.1721625E0,1.2103052E0,8.5167E1,5.6387086E0,1.1671749E0,1.607716E1,5.391704E0,1.8238627E0,3.3483002E0,8.409616E1,1.0708376E0,1.317286E0,4.074418E0,8.307437E1,1.0217865E0],"tree_param":{"num_deleted":"0","num_feature":"59","num_nodes":"29","size_leaf_vector":"1"}},{"base_weights":[5.8545074E-3,9.501985E-1,-6.902038E-1,-6.3737735E-2,9.928369E-2,-7.901967E-1,1.4667548E-1,6.172032E-2,-6.552736E-2,-4.9263912E-1,-8.751204E-1,1.11352645E-1,-6.395736E-1,-8.196631E-1,7.279931E-1,1.9552637E-2,-8.9402664E-1,-8.208571E-2,1.2275474E-2,-9.4129555E-2,-3.6784574E-1,2.6917228E-2,8.652129E-2,-9.750226E-1,-6.4483154E-1,6.959687E-2,-7.9596244E-2,-9.877837E-2,-1.3930193E-2,7.6475315E-2,-9.526956E-2],"categories":[],"categories_nodes":[],"categories_segments":[],"categories_sizes":[],"default_left":[0,0,0,0,0,0,0,0,0,0,0,0,0,0,0,0,0,0,0,0,0,0,